svm_type c_svc
kernel_type linear
nr_class 2
total_sv 802
rho -17.3207
label 0 1
probA -1.92195
probB 0.0763359
nr_sv 399 403
Xmax 6.272407045009784632e-01 3.319080398114820696e+00 6.011848849732406297e-01 3.282298180327648529e-01 3.167863803800801126e+00 8.235068000005929534e-02 9.645312499999999512e-01 -2.018326218105866587e+01 4.295083755801297976e+00 1.992750817496715010e+00 1.714178099276904232e+00 1.229655373296980381e+00 1.027633697792230683e+00 1.021924232110039910e+00 1.299389444015077277e+00 1.074301503811314618e+00 1.091871057956059543e+00 1.152119125173074465e+00 1.009257769078716560e+00 1.019396889416082308e+00 2.602905987656409237e-01 9.048046670046984152e-01 2.161539273556798701e-01 7.204062540823120975e-02 1.346704998276242460e+00 1.954711217188945804e-01 4.462367054217133977e-01 4.960673394134252234e+00 2.015438798277160881e+00 1.697327184434099800e+00 1.124967565477862586e+00 7.904805845436092548e-01 7.049530863480127918e-01 7.405948629969345554e-01 8.961409800472636134e-01 7.927646394726656220e-01 9.216496607841728750e-01 8.576319943927884770e-01 8.664986552031720413e-01 6.923826973812010621e-01
Xmin 1.189823874755381594e-02 2.197081496556561486e+00 1.024985066786110732e-01 1.248018100459491464e-01 8.042881717012172194e-02 7.423632123567413567e-04 1.046875000000000062e-02 -3.859681642530517820e+01 -2.764720947227323755e+00 -2.520171889026677103e+00 -1.611752102254705887e+00 -1.585828245682970206e+00 -1.188885077105420685e+00 -1.433211639616803312e+00 -1.172596875137877026e+00 -1.220806058225459179e+00 -9.961710563478461955e-01 -1.184424706560521567e+00 -8.993416221858212545e-01 -1.004408593337648092e+00 0.000000000000000000e+00 0.000000000000000000e+00 0.000000000000000000e+00 0.000000000000000000e+00 0.000000000000000000e+00 0.000000000000000000e+00 0.000000000000000000e+00 0.000000000000000000e+00 0.000000000000000000e+00 0.000000000000000000e+00 0.000000000000000000e+00 0.000000000000000000e+00 0.000000000000000000e+00 0.000000000000000000e+00 0.000000000000000000e+00 0.000000000000000000e+00 0.000000000000000000e+00 0.000000000000000000e+00 0.000000000000000000e+00 0.000000000000000000e+00
probThreshold 0.5
bDoDeNoise 0
bDoVad 0
SV
5 1:0.38188526 2:0.89148405 3:0.45335215 4:0.71798224 5:0.652168 6:0.038870296 7:0.54258107 8:0.57738599 9:0.63533086 10:0.50457767 11:0.48111861 12:0.8119043 13:0.36164085 14:0.47089979 15:0.4503647 16:0.39865049 17:0.37807719 18:0.38563531 19:0.45842068 20:0.40073873 21:0.1500002 22:0.12851441 23:0.10644889 24:0.15766756 25:0.14654887 26:0.0054308463 27:0.36138516 28:0.10057661 29:0.13499933 30:0.1669582 31:0.20804708 32:0.20822307 33:0.30237612 34:0.23405908 35:0.17010692 36:0.19180527 37:0.14709987 38:0.23840384 39:0.18229396 40:0.17921581 
5 1:0.23361678 2:0.95229147 3:0.39054415 4:0.60903626 5:0.45362416 6:0.028313388 7:0.29263776 8:0.70856441 9:0.57786483 10:0.46115229 11:0.44446847 12:0.52571165 13:0.35251222 14:0.41863979 15:0.41339312 16:0.66993187 17:0.65220652 18:0.75920985 19:0.66144274 20:0.59432495 21:0.11480438 22:0.044100992 23:0.10754887 24:0.056339624 25:0.23379944 26:0.0089120197 27:0.1954039 28:0.028568001 29:0.13127054 30:0.12592881 31:0.18211281 32:0.31453963 33:0.29574986 34:0.23219621 35:0.19185776 36:0.18144659 37:0.20010613 38:0.14436364 39:0.13847332 40:0.12761492 
5 1:0.3044142 2:0.69493172 3:0.46092222 4:0.71871133 5:0.49319381 6:0.062881629 7:0.37520472 8:0.83308623 9:0.54938021 10:0.51070059 11:0.48629992 12:0.60485672 13:0.52346318 14:0.61112335 15:0.40227808 16:0.42031898 17:0.50403751 18:0.54585185 19:0.49464007 20:0.50392393 21:0.23775718 22:0.56253607 23:0.14626365 24:0.47003346 25:0.35628067 26:0.0148332 27:0.33895689 28:0.30126808 29:0.31176642 30:0.64924247 31:0.33803689 32:0.55579779 33:0.43639857 34:0.40632655 35:0.39742755 36:0.45104066 37:0.29822801 38:0.61632105 39:0.40510502 40:0.40063956 
5 1:0.23572065 2:0.70097302 3:0.26961723 4:0.41104312 5:0.39552855 6:0.11667921 7:0.18686538 8:0.7856949 9:0.69101814 10:0.35384698 11:0.38416435 12:0.41315344 13:0.54313701 14:0.57097755 15:0.42558112 16:0.4901677 17:0.59339385 18:0.55213944 19:0.48475985 20:0.46169945 21:0.12797933 22:0.35156901 23:0.10840422 24:0.31744781 25:0.22849401 26:0.023769659 27:0.155072 28:0.095376615 29:0.22667564 30:0.47060564 31:0.41234769 32:0.36108736 33:0.50467867 34:0.33153444 35:0.23577248 36:0.26094951 37:0.28906994 38:0.24021611 39:0.24765872 40:0.36567063 
3.881640376008703 1:0.22045541 2:0.67318804 3:0.27649357 4:0.44952724 5:0.37156072 6:0.11979433 7:0.16852276 8:0.76434823 9:0.71471583 10:0.38032691 11:0.38366225 12:0.36900032 13:0.4445035 14:0.52225036 15:0.50598889 16:0.53802099 17:0.47381612 18:0.55687877 19:0.4427833 20:0.43646465 21:0.15986989 22:0.32189568 23:0.12046679 24:0.30074021 25:0.22527182 26:0.028377222 27:0.11572672 28:0.10205078 29:0.16663959 30:0.23033319 31:0.24787257 32:0.34599242 33:0.31717268 34:0.30291781 35:0.1550794 36:0.22762008 37:0.1540229 38:0.22821064 39:0.20705137 40:0.39555149 
5 1:0.25632871 2:0.81201934 3:0.32575134 4:0.48080448 5:0.43821102 6:0.10888438 7:0.22224042 8:0.78303794 9:0.65590121 10:0.4004594 11:0.44283834 12:0.39796313 13:0.53425684 14:0.51024234 15:0.47865882 16:0.58234732 17:0.54460922 18:0.48599187 19:0.48513546 20:0.50898639 21:0.15409021 22:0.19097291 23:0.094294954 24:0.26981047 25:0.21364221 26:0.028376087 27:0.15628797 28:0.078764119 29:0.1792765 30:0.33807024 31:0.37300729 32:0.48847693 33:0.31956564 34:0.3349879 35:0.18979884 36:0.31437286 37:0.20187193 38:0.19632569 39:0.18439213 40:0.32499044 
5 1:0.25022262 2:0.65493375 3:0.30236858 4:0.4457027 5:0.40744131 6:0.11945662 7:0.19980347 8:0.79186989 9:0.66680781 10:0.3790975 11:0.42027954 12:0.34923074 13:0.5555433 14:0.54570992 15:0.47472132 16:0.56761698 17:0.4591033 18:0.46947903 19:0.54387888 20:0.56238067 21:0.16811844 22:0.36179137 23:0.098077352 24:0.22378068 25:0.23755636 26:0.023387691 27:0.15667268 28:0.10714968 29:0.19109211 30:0.37261731 31:0.36251627 32:0.57839134 33:0.44175101 34:0.41159845 35:0.31121023 36:0.27683285 37:0.23488482 38:0.30751562 39:0.16125113 40:0.2536485 
5 1:0.30524106 2:0.76637364 3:0.41165102 4:0.69572408 5:0.56738027 6:0.045686918 7:0.37979037 8:0.8797674 9:0.60322854 10:0.53316151 11:0.51121724 12:0.54760664 13:0.61339932 14:0.63946921 15:0.54423975 16:0.55790714 17:0.4670323 18:0.54198856 19:0.45574169 20:0.4800785 21:0.16098442 22:0.39966509 23:0.12048595 24:0.41990229 25:0.35203948 26:0.007950494 27:0.27793524 28:0.13895385 29:0.13415069 30:0.41899607 31:0.21630048 32:0.52095039 33:0.3112645 34:0.23649316 35:0.29125435 36:0.24969568 37:0.24280445 38:0.3797655 39:0.20723466 40:0.27514405 
5 1:0.31090192 2:0.82019661 3:0.43626337 4:0.77829278 5:0.37418527 6:0.081288773 7:0.46364232 8:0.62876752 9:0.65200793 10:0.70173906 11:0.50843871 12:0.84226978 13:0.42770903 14:0.30976225 15:0.47596516 16:0.23648883 17:0.32443459 18:0.3572538 19:0.47193753 20:0.3829518 21:0.30695128 22:0.27753535 23:0.12409327 24:0.17430734 25:0.23892757 26:0.017177729 27:0.50064737 28:0.1096079 29:0.074041631 30:0.18085029 31:0.17954655 32:0.22898004 33:0.23261717 34:0.20732569 35:0.18459085 36:0.20824575 37:0.21198067 38:0.17887552 39:0.18466369 40:0.25039644 
5 1:0.29907136 2:0.8497082 3:0.38664899 4:0.71146846 5:0.38235843 6:0.06498956 7:0.47002948 8:0.61408524 9:0.68951261 10:0.67448179 11:0.49867736 12:0.82209318 13:0.48362689 14:0.36648412 15:0.50688429 16:0.26186017 17:0.28770111 18:0.42652596 19:0.50718705 20:0.35216477 21:0.25856295 22:0.17486404 23:0.18807177 24:0.28726971 25:0.16637224 26:0.015913105 27:0.51448964 28:0.12598173 29:0.14576168 30:0.19827602 31:0.22475277 32:0.32251374 33:0.22069128 34:0.21773558 35:0.12724268 36:0.22642859 37:0.16914121 38:0.20556151 39:0.13915285 40:0.21056805 
5 1:0.28978501 2:0.88015004 3:0.36653612 4:0.64208859 5:0.48602478 6:0.054416194 7:0.32590894 8:0.6591778 9:0.68991877 10:0.58081497 11:0.56830062 12:0.74784101 13:0.32657075 14:0.49534799 15:0.46340439 16:0.35975909 17:0.41022476 18:0.58438232 19:0.496483 20:0.30558362 21:0.18050224 22:0.1125854 23:0.18455734 24:0.33112294 25:0.24838549 26:0.010359205 27:0.33911781 28:0.093152752 29:0.17483754 30:0.23386639 31:0.28305098 32:0.3868311 33:0.40950512 34:0.3294359 35:0.18949362 36:0.2799931 37:0.35243 38:0.19702185 39:0.27069902 40:0.34216425 
5 1:0.22999618 2:0.52280012 3:0.53175244 4:0.890448 5:0.25126246 6:0.59463012 7:0.41729446 8:0.045351315 9:0.53299903 10:0.8083753 11:0.58893916 12:0.67440525 13:0.65859661 14:0.66668627 15:0.53850992 16:0.60818676 17:0.50470291 18:0.60957826 19:0.51255138 20:0.56732421 21:0.57416711 22:0.39513053 23:0.97440346 24:0.58862356 25:0.6108861 26:0.28186523 27:0.99755717 28:0.31080795 29:0.50624548 30:0.25495379 31:0.2119166 32:0.23489731 33:0.20121441 34:0.22212653 35:0.19413227 36:0.17308178 37:0.10765745 38:0.17530345 39:0.12484756 40:0.20816094 
5 1:0.1708434 2:0.51646173 3:0.45324871 4:0.82755431 5:0.21796931 6:0.60720755 7:0.38126433 8:0.030366623 9:0.54219301 10:0.81623542 11:0.60294297 12:0.70644832 13:0.62516185 14:0.67048392 15:0.52898946 16:0.61503575 17:0.51236918 18:0.58111003 19:0.47232587 20:0.57102802 21:0.45276 22:0.33189241 23:1 24:0.64084645 25:0.63912792 26:0.2573011 27:1 28:0.32982945 29:0.56294452 30:0.32058355 31:0.19144072 32:0.266506 33:0.2249766 34:0.24511684 35:0.22371278 36:0.15495798 37:0.1572951 38:0.15412231 39:0.19774923 40:0.17344041 
5 1:0.13077217 2:0.6317711 3:0.44858021 4:0.9840808 5:0.14914876 6:0.41519632 7:0.28832296 9:0.54632998 10:0.82329735 11:0.5993287 12:0.74090476 13:0.63628944 14:0.65401553 15:0.58154659 16:0.66770999 17:0.53432236 18:0.60735814 19:0.46045682 20:0.55572727 21:0.41538003 22:0.21080386 23:0.76207438 24:0.84149132 25:0.43789352 26:0.18891455 27:0.85979548 28:0.28138669 29:0.37901888 30:0.245507 31:0.21245206 32:0.20266953 33:0.16839082 34:0.18500565 35:0.14991008 36:0.18443962 37:0.16879913 38:0.14351267 39:0.20038375 40:0.20552217 
5 1:0.75753721 2:0.64942422 3:0.75142159 4:0.82085598 5:0.47878712 6:0.083224583 7:0.78643957 8:0.56720667 9:0.52388707 10:0.73256988 11:0.50285099 12:0.76667765 13:0.58954195 14:0.63227793 15:0.52286509 16:0.50829039 17:0.65877143 18:0.47627027 19:0.63206753 20:0.35939512 21:0.90301343 22:0.37124137 23:0.74834539 24:0.57603614 25:0.2695487 26:0.020840175 27:0.47859488 28:0.56785373 29:0.66202519 30:0.27503613 31:0.28984456 32:0.23655122 33:0.2467921 34:0.23550828 35:0.19007898 36:0.24428284 37:0.15398869 38:0.18596775 39:0.20471265 40:0.15451493 
5 1:0.17402366 2:0.8063314 3:0.18047935 4:0.31955925 5:0.3098415 6:0.1308726 7:0.16590239 8:0.5311266 9:0.89353768 10:0.49121779 11:0.38436881 12:0.42967645 13:0.76863005 14:0.6720074 15:0.53387593 16:0.51212924 17:0.41748397 18:0.38036116 19:0.3629486 20:0.56328912 21:0.18322494 22:0.26552983 23:0.29716035 24:0.75206683 25:0.20566782 26:0.044769389 27:0.35491513 28:0.24364558 29:0.2945155 30:0.36912917 31:0.34686378 32:0.48426682 33:0.40083772 34:0.30640878 35:0.23212211 36:0.27218226 37:0.20323101 38:0.17855093 39:0.30130666 40:0.37170642 
5 1:0.20900649 2:0.65735882 3:0.19735118 4:0.21598728 5:0.31075398 6:0.11758815 7:0.19849329 8:0.52094502 9:0.85805124 10:0.31484781 11:0.54325069 12:0.52925883 13:0.75007468 14:0.6714611 15:0.47701744 16:0.43016327 17:0.44909399 18:0.46781202 19:0.27547117 20:0.53646953 21:0.37032881 22:0.43718119 23:0.35022321 24:0.71704394 25:0.33239698 26:0.032754159 27:0.33875752 28:0.3186645 29:0.33061543 30:0.71920671 31:0.36225334 32:0.45533987 33:0.64417347 34:0.5668344 35:0.29057322 36:0.29294918 37:0.21721062 38:0.25480549 39:0.35166796 40:0.26152459 
5 1:0.087266251 2:0.88851016 3:0.091789948 4:0.2777181 5:0.19474022 6:0.056941878 7:0.094005896 8:0.3559073 9:0.93596705 10:0.65542601 11:0.5560011 12:0.45634181 13:0.48961138 14:0.55127212 15:0.48987017 16:0.48724651 17:0.39741118 18:0.48435241 19:0.44747 20:0.40543087 21:0.040410236 22:0.14408857 23:0.093761123 24:0.35839029 25:0.13432538 26:0.011130304 27:0.021281546 28:0.1455847 29:0.20096017 30:0.077094284 31:0.14599802 32:0.1788931 33:0.23344464 34:0.27095546 35:0.2563684 36:0.21652884 37:0.12018313 38:0.13874089 39:0.13481098 40:0.17343134 
5 1:0.086375779 2:0.89667194 3:0.042887328 4:0.15535415 5:0.091667388 6:0.054569448 7:0.080740255 8:0.3868798 9:0.97898343 10:0.7112539 11:0.6425729 12:0.44376349 13:0.55888928 14:0.55871431 15:0.55576909 16:0.55645599 17:0.49088054 18:0.62552385 19:0.57264538 20:0.45668972 21:0.038293556 22:0.058675195 23:0.1055273 24:0.4113309 25:0.096413882 26:0.026812167 27:0.012379689 28:0.13607225 29:0.2140348 30:0.19723577 31:0.15722324 32:0.22284521 33:0.23255832 34:0.26658708 35:0.13757705 36:0.19557119 37:0.17893624 38:0.18599178 39:0.28652807 40:0.55111326 
5 1:0.087266251 2:0.85590347 3:0.09500252 4:0.26065468 5:0.1853116 6:0.082941022 7:0.10252211 8:0.49033189 9:0.90460135 10:0.59405449 11:0.65215056 12:0.52902408 13:0.67413617 14:0.59830799 15:0.62019827 16:0.61779826 17:0.50428656 18:0.53126861 19:0.46437678 20:0.40393203 21:0.072710169 22:0.09876051 23:0.088887548 24:0.31638433 25:0.25203853 26:0.018974583 27:0.10237097 28:0.24059535 29:0.18923423 30:0.36907075 31:0.27891193 32:0.50496036 33:0.28374314 34:0.23145108 35:0.27208381 36:0.35954922 37:0.16496614 38:0.18463815 39:0.15193619 40:0.14428265 
5 1:0.14842259 2:0.86286571 3:0.14285916 4:0.22551724 5:0.32489078 6:0.11554427 7:0.13522901 8:0.65155983 9:0.90267897 10:0.45973235 11:0.46211941 12:0.39926672 13:0.67032786 14:0.70340436 15:0.50706553 16:0.51082302 17:0.54621033 18:0.44541608 19:0.32562714 20:0.53269922 21:0.080427542 22:0.11748708 23:0.12069513 24:0.37859182 25:0.13311689 26:0.024104405 27:0.06324955 28:0.24215634 29:0.26793362 30:0.38109689 31:0.2935625 32:0.33167956 33:0.44658187 34:0.45292838 35:0.3183984 36:0.29862208 37:0.2295255 38:0.19296966 39:0.17190175 40:0.2743084 
5 1:0.089428826 2:0.83525014 3:0.076954791 4:0.21796288 5:0.15085741 6:0.081784328 7:0.087782509 8:0.5433041 9:0.95251103 10:0.61020564 11:0.64631694 12:0.50942899 13:0.55413905 14:0.50365113 15:0.49562521 16:0.55436238 17:0.47944706 18:0.53723054 19:0.46112698 20:0.46509694 21:0.03845382 22:0.10853829 23:0.066695884 24:0.28169146 25:0.10734045 26:0.018002207 27:0.017388066 28:0.073440128 29:0.14490727 30:0.15071235 31:0.16345213 32:0.2203746 33:0.12824158 34:0.24497242 35:0.15197925 36:0.11230953 37:0.10748952 38:0.13394448 39:0.15505493 40:0.28333903 
5 1:0.20722554 2:0.77329026 3:0.23517094 4:0.27200908 5:0.37366376 6:0.11948905 7:0.23042909 8:0.76359046 9:0.76057916 10:0.31223885 11:0.48640132 12:0.32778147 13:0.77683792 14:0.71796708 15:0.46172525 16:0.51367677 17:0.49043809 18:0.45333388 19:0.37890979 20:0.4686814 21:0.09517797 22:0.23293691 23:0.1131671 24:0.46349764 25:0.1713562 26:0.02313326 27:0.16731332 28:0.25645164 29:0.26356194 30:0.39567229 31:0.3884057 32:0.51354822 33:0.51684318 34:0.54753796 35:0.25718724 36:0.33143955 37:0.27323459 38:0.2835076 39:0.29134622 40:0.38726494 
5 1:0.18165628 2:0.76741929 3:0.20332654 4:0.28933987 5:0.33192485 6:0.16384592 7:0.19756524 8:0.71420413 9:0.82809982 10:0.33669972 11:0.53316141 12:0.47823016 13:0.62615483 14:0.85426662 15:0.52578446 16:0.356774 17:0.52551779 18:0.52472378 19:0.25728122 20:0.45650553 21:0.14522098 22:0.28085023 23:0.15679011 24:0.60926371 25:0.28020413 26:0.038632384 27:0.16353273 28:0.24099228 29:0.22766717 30:0.40098071 31:0.34254737 32:0.3991201 33:0.26375057 34:0.43589383 35:0.20838275 36:0.27332186 37:0.22369044 38:0.18167811 39:0.17874505 40:0.16661882 
5 1:0.1708434 2:0.77623739 3:0.23165544 4:0.40250298 5:0.32946235 6:0.14480516 7:0.20144121 8:0.71127251 9:0.8144816 10:0.4878812 11:0.41534803 12:0.29912635 13:0.64109594 14:0.61867901 15:0.4602263 16:0.57603715 17:0.50702022 18:0.48009704 19:0.37252324 20:0.45394765 21:0.1168028 22:0.32243129 23:0.26419149 24:0.62569152 25:0.23680082 26:0.039585891 27:0.39028289 28:0.32982308 29:0.2399281 30:0.27557146 31:0.18735526 32:0.49663266 33:0.50463899 34:0.36594316 35:0.21547165 36:0.28879956 37:0.23402331 38:0.30167562 39:0.22222123 40:0.3927112 
5 1:0.12352118 2:0.81914207 3:0.1543393 4:0.38396956 5:0.25511187 6:0.070142879 7:0.10088438 8:0.56386347 9:0.83464935 10:0.66721427 11:0.63123661 12:0.46507876 13:0.47701733 14:0.53496558 15:0.51983684 16:0.60902746 17:0.46995296 18:0.40369056 19:0.43396055 20:0.34958972 21:0.082658277 22:0.097177032 23:0.083502968 24:0.2380081 25:0.1556813 26:0.017275118 27:0.041261339 28:0.092406891 29:0.1316542 30:0.13210236 31:0.17232851 32:0.16311997 33:0.32980999 34:0.20361597 35:0.16023598 36:0.19810398 37:0.1455104 38:0.30184183 39:0.16469639 40:0.30026596 
5 1:0.11716067 2:0.80344402 3:0.14215574 4:0.34643194 5:0.16002365 6:0.073677204 7:0.086472322 8:0.58495028 9:0.84994484 10:0.66766822 11:0.65296667 12:0.46931425 13:0.4162499 14:0.47308471 15:0.42918383 16:0.53422397 17:0.39107071 18:0.45821995 19:0.55540902 20:0.35157022 21:0.058272338 22:0.11478196 23:0.074082931 24:0.17650459 25:0.10679028 26:0.013834407 27:0.040457158 28:0.10185753 29:0.092235754 30:0.10381555 31:0.10207657 32:0.1861261 33:0.18613823 34:0.18671141 35:0.1631058 36:0.13308457 37:0.18346321 38:0.23173315 39:0.31416579 40:0.15973094 
5 1:0.11812181 2:0.81984589 3:0.13224729 4:0.31942033 5:0.20334966 6:0.071029078 7:0.090930596 8:0.58986388 9:0.88004614 10:0.63542589 11:0.63117684 12:0.46589574 13:0.45145774 14:0.45460186 15:0.39501731 16:0.53899133 17:0.46913587 18:0.53880937 19:0.59236136 20:0.3869658 21:0.038135282 22:0.15911389 23:0.066029092 24:0.17587146 25:0.054257699 26:0.0079876566 27:0.002751042 28:0.062200576 29:0.096268242 30:0.088799619 31:0.12464661 32:0.1997588 33:0.16659534 34:0.23999029 35:0.10054612 36:0.10233676 37:0.21194411 38:0.058153478 39:0.13510628 40:0.17227013 
0.03711323384813013 1:0.094390027 2:0.76996982 3:0.16100755 4:0.54461078 5:0.10877608 6:0.096122024 7:0.058958402 8:0.41126595 9:0.76449804 10:0.69699093 11:0.64925307 12:0.68730401 13:0.60595769 14:0.62284339 15:0.4843708 16:0.50658621 17:0.54412945 18:0.49960468 19:0.5099242 20:0.55670564 21:0.070022294 22:0.14475856 23:0.048869451 24:0.13274573 25:0.070750599 26:0.020844347 27:0.027000213 28:0.035646138 29:0.054525624 30:0.088632325 31:0.11797419 32:0.14520216 33:0.21491884 34:0.14743367 35:0.096695254 36:0.18803645 37:0.12087491 38:0.12465381 39:0.12030944 40:0.20809409 
5 1:0.061951406 2:0.76157392 3:0.10054193 4:0.43154287 5:0.075355661 6:0.19759755 7:0.047658041 8:0.42617987 9:0.80660911 10:0.69441542 11:0.64726229 12:0.68118152 13:0.65787639 14:0.66165343 15:0.58608102 16:0.57103631 17:0.48444828 18:0.47175745 19:0.48756904 20:0.55818296 21:0.053293359 22:0.12868436 23:0.077840606 24:0.17517751 25:0.12912144 26:0.052762956 27:0.050543104 28:0.083796427 29:0.082052829 30:0.086140117 31:0.16671484 32:0.21967713 33:0.22004821 34:0.19922901 35:0.12469706 36:0.17047503 37:0.12671839 38:0.16574601 39:0.1039414 40:0.21050577 
5 1:0.039689607 2:0.77189015 3:0.050792447 4:0.28356379 5:0.040998713 6:0.14592743 7:0.047494268 8:0.58385692 9:0.88597706 10:0.65138362 11:0.73127558 12:0.69971206 13:0.58009013 14:0.59571426 15:0.54224949 16:0.55904967 17:0.52179146 18:0.53001522 19:0.52271526 20:0.56015734 21:0.022911014 22:0.10513769 23:0.10253392 24:0.36569022 25:0.049605483 26:0.030762427 27:0.023162925 28:0.084740645 29:0.14975056 30:0.094006731 31:0.18064601 32:0.14688699 33:0.17927621 34:0.15746362 35:0.12500681 36:0.2040268 37:0.13905973 38:0.14518305 39:0.10773304 40:0.1493976 
5 1:0.063223508 2:0.75332991 3:0.078804227 4:0.34090735 5:0.073193538 6:0.14313804 7:0.056501802 8:0.57617999 9:0.87780777 10:0.66883092 11:0.68544484 12:0.68336779 13:0.53311577 14:0.5791798 15:0.54907644 16:0.55967678 17:0.48911982 18:0.48120945 19:0.49822957 20:0.51445853 21:0.039122997 22:0.15532607 23:0.065169129 24:0.2568298 25:0.043106581 26:0.02986 27:0.017702523 28:0.074426238 29:0.11974478 30:0.096633077 31:0.18939237 32:0.16989303 33:0.17449959 34:0.1954194 35:0.13758632 36:0.16201473 37:0.13576935 38:0.13466775 39:0.14362122 40:0.11996617 
5 1:0.074163592 2:0.75935245 3:0.09171441 4:0.33874095 5:0.098321071 6:0.12169336 7:0.065509335 8:0.58448329 9:0.87647458 10:0.64011473 11:0.68143206 12:0.68251213 13:0.54303453 14:0.56549423 15:0.53805899 16:0.57016384 17:0.48150583 18:0.4949281 19:0.48762658 20:0.51108904 21:0.053374754 22:0.15290472 23:0.11823258 24:0.33582919 25:0.10075847 26:0.026953382 27:0.026519132 28:0.074237337 29:0.17536559 30:0.12043483 31:0.18948457 32:0.19148252 33:0.22240785 34:0.20926619 35:0.14643192 36:0.13850655 37:0.097502242 38:0.10448815 39:0.15659013 40:0.18060064 
5 1:0.060965526 2:0.75218084 3:0.076101975 4:0.33387765 5:0.078827934 6:0.11222115 7:0.061957501 8:0.58207008 9:0.90065212 10:0.66565567 11:0.62856978 12:0.72430503 13:0.55454377 14:0.61055589 15:0.51214436 16:0.55781208 17:0.49452193 18:0.50568785 19:0.53136395 20:0.46935959 21:0.040964479 22:0.13236294 23:0.063129017 24:0.20636866 25:0.0759445 26:0.016035955 27:0.024994013 28:0.062055971 29:0.096376613 30:0.092617614 31:0.1363357 32:0.17956336 33:0.14516558 34:0.16867998 35:0.18185483 36:0.17581631 37:0.13819749 38:0.1162403 39:0.13554486 40:0.21191019 
5 1:0.070347284 2:0.78941536 3:0.084417324 4:0.3061518 5:0.092522558 6:0.10924837 7:0.062070095 8:0.60315212 9:0.87587055 10:0.62415359 11:0.72043704 12:0.6841556 13:0.53662306 14:0.56374606 15:0.53895514 16:0.54590286 17:0.48956783 18:0.48626436 19:0.52206591 20:0.50702525 21:0.065058424 22:0.10163733 23:0.070957428 24:0.26200108 25:0.089230504 26:0.018273728 27:0.027646371 28:0.057348577 29:0.11046655 30:0.089075607 31:0.13053543 32:0.12560349 33:0.21827645 34:0.18550292 35:0.12256606 36:0.17615575 37:0.1075192 38:0.1552354 39:0.12966196 40:0.1566578 
5 1:0.072001018 2:0.81939845 3:0.084828157 4:0.30571834 5:0.10116898 6:0.13820075 7:0.064526695 8:0.59719771 9:0.87975093 10:0.6211199 11:0.72302162 12:0.65869909 13:0.54528573 14:0.57659291 15:0.52961048 16:0.54880086 17:0.46127546 18:0.48386044 19:0.5038468 20:0.53033585 21:0.048094667 22:0.0656314 23:0.070649266 24:0.25309319 25:0.079541391 26:0.026426166 27:0.027579769 28:0.052052864 29:0.10405476 30:0.083791329 31:0.14881141 32:0.1318485 33:0.18682684 34:0.15809065 35:0.13646194 36:0.12560314 37:0.12359416 38:0.12936913 39:0.1405371 40:0.16983723 
5 1:0.07772548 2:0.81173864 3:0.096950154 4:0.31999895 5:0.10939914 6:0.11744342 7:0.067310842 8:0.60497725 9:0.87000337 10:0.61306433 11:0.72794206 12:0.6572939 13:0.57015602 14:0.55528868 15:0.48427966 16:0.55171797 17:0.44879283 18:0.52275154 19:0.48791781 20:0.49020815 21:0.042429959 22:0.093143359 23:0.065248435 24:0.23730332 25:0.073189408 26:0.015861024 27:0.027271306 28:0.053660846 29:0.090543965 30:0.10269269 31:0.13574365 32:0.14709273 33:0.13579223 34:0.16916676 35:0.14337922 36:0.15520964 37:0.11287613 38:0.12350542 39:0.1124431 40:0.15847794 
5 1:0.083195522 2:0.83562446 3:0.09874637 4:0.31708674 5:0.11985219 6:0.11532015 7:0.071568949 8:0.60847499 9:0.86975001 10:0.5993591 11:0.68940743 12:0.68238363 13:0.56757012 14:0.56768778 15:0.5275559 16:0.53418115 17:0.47752207 18:0.51800941 19:0.4945853 20:0.48101104 21:0.050870956 22:0.071296886 23:0.058769711 24:0.20991355 25:0.067531522 26:0.023228646 27:0.023184088 28:0.039585493 29:0.082411559 30:0.08803919 31:0.090944657 32:0.14737461 33:0.1633913 34:0.19122727 35:0.17541994 36:0.16806936 37:0.12619393 38:0.12182656 39:0.15237327 40:0.17328462 
5 1:0.090446508 2:0.77129821 3:0.12919989 4:0.37873858 5:0.15571274 6:0.082247625 7:0.078447429 8:0.66731967 9:0.82783007 10:0.601915 11:0.68116505 12:0.70932852 13:0.5334552 14:0.60989378 15:0.52952679 16:0.56639564 17:0.46380755 18:0.48467289 19:0.4952203 20:0.50297678 21:0.074491913 22:0.1515137 23:0.11200334 24:0.26514644 25:0.12590184 26:0.017030873 27:0.051620781 28:0.093736057 29:0.12858839 30:0.099924954 31:0.12841058 32:0.17674912 33:0.24963634 34:0.20400057 35:0.15996043 36:0.17533463 37:0.11697599 38:0.13606976 39:0.14448174 40:0.18464977 
5 1:0.096213374 2:0.82791718 3:0.11206134 4:0.32039581 5:0.1550858 6:0.086169956 7:0.081832078 8:0.68396085 9:0.85604176 10:0.56627567 11:0.67688851 12:0.7374767 13:0.54510398 14:0.55902944 15:0.515628 16:0.54074964 17:0.44892079 18:0.45973803 19:0.43166401 20:0.50711194 21:0.048659768 22:0.098887551 23:0.022783537 24:0.094905812 25:0.062290409 26:0.0053656058 27:0.027527609 28:0.018505887 29:0.055753522 30:0.067668176 31:0.10580506 32:0.045160292 33:0.13953304 34:0.12335325 35:0.12030139 36:0.06612206 37:0.14363845 38:0.14462821 39:0.091409815 40:0.075397343 
5 1:0.068802588 2:0.73305071 3:0.08499645 4:0.31587231 5:0.1029037 6:0.1333746 7:0.059800664 8:0.65168974 9:0.85989706 10:0.5992755 11:0.70141539 12:0.6989089 13:0.60644588 14:0.57631636 15:0.5511363 16:0.59357665 17:0.47145536 18:0.44944368 19:0.49855103 20:0.52834261 21:0.045326745 22:0.21568784 23:0.097553838 24:0.30848339 25:0.094099716 26:0.026511033 27:0.02676267 28:0.069373389 29:0.14717141 30:0.1036768 31:0.14928723 32:0.15420927 33:0.1527158 34:0.22114973 35:0.16816812 36:0.18770058 37:0.11880177 38:0.14302802 39:0.1514131 40:0.14360307 
5 1:0.066658186 2:0.78452479 3:0.075079159 4:0.26383848 5:0.1028768 6:0.11943412 7:0.060759908 8:0.64746923 9:0.8916233 10:0.57640378 11:0.70643026 12:0.70902859 13:0.57194119 14:0.61505201 15:0.56485055 16:0.54715816 17:0.50093254 18:0.49000579 19:0.50243901 20:0.48228548 21:0.047143143 22:0.13006481 23:0.068284835 24:0.23957631 25:0.085827696 26:0.029736501 27:0.032482946 28:0.055801302 29:0.11087832 30:0.077084461 31:0.11774255 32:0.1533607 33:0.1805158 34:0.1254573 35:0.13531096 36:0.14602516 37:0.10057504 38:0.13313424 39:0.15024417 40:0.14731847 
5 1:0.080142476 2:0.75238164 3:0.10345131 4:0.32637238 5:0.12206165 6:0.12017421 7:0.066000655 8:0.63305641 9:0.85303657 10:0.58354267 11:0.72511756 12:0.71150632 13:0.58378885 14:0.57815699 15:0.54459939 16:0.5377171 17:0.49089871 18:0.49911124 19:0.45772826 20:0.48331021 21:0.048748385 22:0.16214572 23:0.057390014 24:0.21242885 25:0.090644876 26:0.018895192 27:0.033585255 28:0.048274366 29:0.082133499 30:0.086542129 31:0.1615644 32:0.15671912 33:0.16714489 34:0.25248607 35:0.1146483 36:0.15673323 37:0.11771732 38:0.16679263 39:0.13383818 40:0.18198994 
5 1:0.089810457 2:0.7990853 3:0.095414021 4:0.26501618 5:0.1676525 6:0.13816896 7:0.098264003 8:0.29839393 9:0.94783409 10:0.60833814 11:0.42889155 12:0.51693196 13:0.48452371 14:0.52689902 15:0.38593153 16:0.38490269 17:0.29277733 18:0.33411775 19:0.29030537 20:0.3532065 21:0.038437353 22:0.14866289 23:0.10744627 24:0.36498863 25:0.19954761 26:0.045100317 27:0.058419542 28:0.20074174 29:0.24055014 30:0.2340308 31:0.19249181 32:0.30132253 33:0.29693147 34:0.2618211 35:0.18717844 36:0.20935412 37:0.12029318 38:0.19011045 39:0.21974138 40:0.3003599 
5 1:0.10825595 2:0.87157924 3:0.08957668 4:0.21745534 5:0.20824952 6:0.13716243 7:0.11087455 8:0.29177451 9:0.95977397 10:0.57839283 11:0.40077757 12:0.5053528 13:0.51637148 14:0.5125936 15:0.34997426 16:0.41541609 17:0.3907116 18:0.41983273 19:0.34083729 20:0.23367336 21:0.095912508 22:0.11089076 23:0.08965287 24:0.29561421 25:0.25888666 26:0.040071277 27:0.077401476 28:0.11648421 29:0.19482972 30:0.24299636 31:0.26434733 32:0.17503463 33:0.21533578 34:0.23041751 35:0.21179538 36:0.29137267 37:0.23769362 38:0.22305567 39:0.33641776 40:0.2933222 
3.930831920301731 1:0.12339397 2:0.85270165 3:0.093924272 4:0.21185055 5:0.2342722 6:0.10248459 7:0.13134622 8:0.27745394 9:0.97394626 10:0.55297448 11:0.34298358 12:0.55959623 13:0.56361112 14:0.49720406 15:0.31248264 16:0.38697258 17:0.34134829 18:0.4794714 19:0.44752469 20:0.36003745 21:0.078632248 22:0.09367056 23:0.074028586 24:0.30438828 25:0.13224547 26:0.023391153 27:0.053521507 28:0.17229837 29:0.19382428 30:0.22115147 31:0.31580566 32:0.26401164 33:0.2596311 34:0.25124049 35:0.20215792 36:0.21145617 37:0.28760992 38:0.27954438 39:0.22815744 40:0.35932598 
5 1:0.14680066 2:0.85476779 3:0.19094104 4:0.43353583 5:0.30005577 6:0.097170901 7:0.11775303 8:0.3692622 9:0.8537679 10:0.63634157 11:0.36196641 12:0.46375165 13:0.47031914 14:0.54730929 15:0.40412511 16:0.43406535 17:0.2983667 18:0.34073554 19:0.27208457 20:0.32738565 21:0.093982688 22:0.11804433 23:0.25269105 24:0.6020316 25:0.19955939 26:0.031301979 27:0.051644526 28:0.28905076 29:0.40497779 30:0.22174805 31:0.25876779 32:0.3206282 33:0.28088918 34:0.24006153 35:0.17865802 36:0.32255633 37:0.23718359 38:0.25105609 39:0.27409323 40:0.36645812 
5 1:0.077343849 2:0.81530612 3:0.093542486 4:0.310768 5:0.1002767 6:0.11046185 7:0.071732722 8:0.29673143 9:0.92145902 10:0.67620054 11:0.50295506 12:0.49989952 13:0.53560614 14:0.52980336 15:0.35744553 16:0.34633782 17:0.28502966 18:0.40476047 19:0.43742154 20:0.40217631 21:0.032285021 22:0.14249998 23:0.094732001 24:0.33049084 25:0.085880816 26:0.018371727 27:0.023748362 28:0.1491919 29:0.21627435 30:0.11598187 31:0.15442724 32:0.25492421 33:0.18006587 34:0.25242057 35:0.17929782 36:0.12399187 37:0.14441209 38:0.16116701 39:0.097300203 40:0.10561253 
5 1:0.13229869 2:0.80791084 3:0.11776051 4:0.27129496 5:0.21071709 6:0.17023949 7:0.1210285 8:0.3088069 9:0.92556586 10:0.57511875 11:0.3615421 12:0.46897677 13:0.61321405 14:0.56307237 15:0.28114249 16:0.2900276 17:0.29765385 18:0.44792416 19:0.46406844 20:0.41603946 21:0.099712723 22:0.15804882 23:0.079605398 24:0.33347155 25:0.18355394 26:0.05464854 27:0.06759265 28:0.20715018 29:0.16844762 30:0.22603152 31:0.2413949 32:0.17623578 33:0.40979054 34:0.33743736 35:0.23167205 36:0.24359929 37:0.29968247 38:0.26679592 39:0.31215012 40:0.391696 
5 1:0.12466607 2:0.82108433 3:0.10250703 4:0.23967245 5:0.19586849 6:0.14432447 7:0.110547 8:0.30950779 9:0.95081975 10:0.56869431 11:0.37411335 12:0.52924425 13:0.55798605 14:0.54069706 15:0.27318799 16:0.27805402 17:0.30392867 18:0.4492117 19:0.4452625 20:0.43562547 21:0.10839984 22:0.15757873 23:0.13184604 24:0.38076 25:0.17582563 26:0.042695437 27:0.065913911 28:0.18801377 29:0.26230427 30:0.25628366 31:0.23355244 32:0.16087029 33:0.25338461 34:0.2218477 35:0.18962668 36:0.34816929 37:0.16765001 38:0.2085688 39:0.3438471 40:0.39340159 
5 1:0.14680066 2:0.87085159 3:0.092263873 4:0.17843571 5:0.19246449 6:0.19617012 7:0.11447756 8:0.31689306 9:0.9705881 10:0.55437973 11:0.38761452 12:0.53298972 13:0.61302763 14:0.57330835 15:0.26566054 16:0.24935641 17:0.25445743 18:0.44133266 19:0.5673596 20:0.55977717 21:0.11675014 22:0.097868993 23:0.10808199 24:0.3688514 25:0.23230983 26:0.05241732 27:0.074889651 28:0.22120891 29:0.24631996 30:0.33590729 31:0.22003116 32:0.23640657 33:0.3634423 34:0.36425377 35:0.1716783 36:0.2296078 37:0.20865937 38:0.22314764 39:0.22151897 40:0.40334286 
5 1:0.070983335 2:0.79957193 3:0.088693423 4:0.30803017 5:0.11166143 6:0.14708548 7:0.074844415 8:0.35149808 9:0.93092308 10:0.66607587 11:0.51481791 12:0.5681537 13:0.626356 14:0.61199412 15:0.3922088 16:0.41993321 17:0.35350673 18:0.43238133 19:0.35438523 20:0.31789837 21:0.046297206 22:0.14138639 23:0.11602267 24:0.39928074 25:0.13734387 26:0.040960044 27:0.056864698 28:0.1856793 29:0.24102323 30:0.16662383 31:0.25368251 32:0.20719739 33:0.24510261 34:0.13672171 35:0.17030207 36:0.2461979 37:0.20200165 38:0.18580511 39:0.19957136 40:0.25399308 
5 1:0.083322732 2:0.83194291 3:0.076587836 4:0.23587227 5:0.11296038 6:0.20052055 7:0.074680642 8:0.37197552 9:0.95614 10:0.67030974 11:0.4552245 12:0.53056346 13:0.56125666 14:0.53604161 15:0.31003875 16:0.25910442 17:0.29077278 18:0.37193249 19:0.37568102 20:0.33433497 21:0.055473563 22:0.14755258 23:0.11836509 24:0.48548081 25:0.22113637 26:0.08410263 27:0.048196278 28:0.2111534 29:0.27608335 30:0.20700271 31:0.25559791 32:0.30200139 33:0.28920506 34:0.25569315 35:0.16289892 36:0.35141868 37:0.24170011 38:0.22813802 39:0.20404574 40:0.27447805 
5 1:0.076548785 2:0.79682921 3:0.072465326 4:0.23653199 5:0.13080653 6:0.20920295 7:0.087291189 8:0.32052096 9:0.96231877 10:0.64311164 11:0.5001653 12:0.56477 13:0.58751429 14:0.56063018 15:0.38145252 16:0.40440718 17:0.36191632 18:0.46084933 19:0.35698671 20:0.28182341 21:0.045439191 22:0.12009672 23:0.10410223 24:0.40840269 25:0.15136966 26:0.063883656 27:0.069038276 28:0.14881063 29:0.24073907 30:0.14235731 31:0.18469434 32:0.24748899 33:0.23258142 34:0.17298152 35:0.15712905 36:0.26585303 37:0.18028293 38:0.15632912 39:0.22673456 40:0.22754981 
5 1:0.10291312 2:0.79026486 3:0.10935872 4:0.30358274 5:0.17739535 6:0.2333185 7:0.099246643 8:0.3953371 9:0.90979471 10:0.6144336 11:0.46818386 12:0.59880185 13:0.65847664 14:0.58321719 15:0.35597774 16:0.2983246 17:0.30299916 18:0.46536295 19:0.43563394 20:0.32839917 21:0.076762861 22:0.15487354 23:0.12830245 24:0.46349448 25:0.24348089 26:0.051986026 27:0.090190773 28:0.18862581 29:0.24823878 30:0.21567074 31:0.22906573 32:0.2869937 33:0.42765849 34:0.2754103 35:0.21609719 36:0.26982102 37:0.18362385 38:0.18508373 39:0.29272144 40:0.25916462 
5 1:0.10062333 2:0.81349285 3:0.085760363 4:0.23680002 5:0.15023043 6:0.20568379 7:0.092204389 8:0.35615344 9:0.9375913 10:0.6392575 11:0.46948998 12:0.46042006 13:0.59372819 14:0.56212891 15:0.34696679 16:0.31420093 17:0.1731621 18:0.32429126 19:0.38369549 20:0.43460051 21:0.088589127 22:0.1120449 23:0.10937206 24:0.3703944 25:0.18675483 26:0.075802748 27:0.076833901 28:0.16922894 29:0.2032153 30:0.19032295 31:0.28130691 32:0.27326381 33:0.33949677 34:0.24737073 35:0.16094295 36:0.30498501 37:0.20778673 38:0.28460175 39:0.28962892 40:0.24940572 
0.5954901473317814 1:0.071887198 2:0.78332294 3:0.073215313 4:0.25289223 5:0.073054635 6:0.15075845 7:0.058846346 8:0.36014083 9:0.94231939 10:0.67045747 11:0.5526708 12:0.56138695 13:0.59707917 14:0.5380674 15:0.35957225 16:0.38471485 17:0.32220243 18:0.36644624 19:0.24960951 20:0.26697719 21:0.015437407 22:0.1470146 23:0.11315367 24:0.42092576 25:0.088624962 26:0.038316286 27:0.028183377 28:0.17905857 29:0.24272756 30:0.13243827 31:0.17211944 32:0.16884519 33:0.19890336 34:0.20690382 35:0.15817305 36:0.2058022 37:0.20024061 38:0.14261805 39:0.21583886 40:0.30546277 
5 1:0.17567739 2:0.88041346 3:0.157863 4:0.27337705 5:0.2507842 6:0.17974117 7:0.14297412 8:0.45235549 9:0.86573635 10:0.4890097 11:0.32941709 12:0.4989914 13:0.69256877 14:0.55110825 15:0.24730817 16:0.11815062 17:0.22694891 18:0.52027961 19:0.62524788 20:0.57493669 21:0.090911839 22:0.13335861 23:0.1229112 24:0.38598903 25:0.16489812 26:0.052718994 27:0.0065507158 28:0.1926795 29:0.24405837 30:0.26150693 31:0.1613246 32:0.27373681 33:0.27271417 34:0.25662433 35:0.16948722 36:0.18643258 37:0.17765565 38:0.16424471 39:0.1965827 40:0.24852677 
5 1:0.12631981 2:0.85335973 3:0.11119413 4:0.25964457 5:0.18740501 6:0.14918289 7:0.1112021 8:0.43187863 9:0.9218947 10:0.5887302 11:0.42090167 12:0.54178 13:0.71526085 14:0.60548347 15:0.31845543 16:0.2805338 17:0.20892232 18:0.4124665 19:0.48031542 20:0.45820157 21:0.12377625 22:0.10592157 23:0.1192203 24:0.48185178 25:0.17937344 26:0.040175145 27:0.066559915 28:0.19200595 29:0.22355278 30:0.31820436 31:0.29399676 32:0.30090845 33:0.26924326 34:0.27771154 35:0.25433003 36:0.28687871 37:0.19612711 38:0.24189877 39:0.40809002 40:0.53857863 
5 1:0.15570538 2:0.89150642 3:0.11037568 4:0.22206002 5:0.20925851 6:0.15605891 7:0.13101867 8:0.40643277 9:0.91932007 10:0.57501798 11:0.40555656 12:0.54141999 13:0.69523426 14:0.48815058 15:0.21330722 16:0.23182697 17:0.35198359 18:0.57708122 19:0.60195823 20:0.44634925 21:0.11527284 22:0.13832491 23:0.11655697 24:0.28917252 25:0.21715807 26:0.037975662 27:0.077577103 28:0.18198568 29:0.23756824 30:0.33973656 31:0.26815787 32:0.39607986 33:0.47766394 34:0.25660181 35:0.1913934 36:0.22563047 37:0.33021671 38:0.20174429 39:0.23195679 40:0.51936959 
5 1:0.1831828 2:0.90995286 3:0.15331331 4:0.27728429 5:0.22807454 6:0.13539739 7:0.13871602 8:0.39051085 9:0.8533378 10:0.53866328 11:0.45237366 12:0.58139258 13:0.72375288 14:0.42870059 15:0.17550907 16:0.28015546 17:0.51952569 18:0.62707982 19:0.57667893 20:0.30554213 21:0.16184783 22:0.16315995 23:0.10831888 24:0.30479083 25:0.21182996 26:0.048873122 27:0.084620587 28:0.13754873 29:0.16508651 30:0.32545581 31:0.30353972 32:0.26831625 33:0.30525 34:0.27349987 35:0.20249952 36:0.15120647 37:0.28212339 38:0.26954142 39:0.24953545 40:0.27662091 
5 1:0.11054573 2:0.80915859 3:0.08062405 4:0.20551479 5:0.15622357 6:0.20608288 7:0.10055683 8:0.37775291 9:0.95251061 10:0.62130075 11:0.47881812 12:0.53972074 13:0.62061107 14:0.60165914 15:0.31965857 16:0.23947254 17:0.20840382 18:0.38409292 19:0.50586648 20:0.52966543 21:0.093799672 22:0.17693142 23:0.11583335 24:0.38614432 25:0.27347343 26:0.071034259 27:0.083680839 28:0.1951282 29:0.23479272 30:0.26197297 31:0.30320908 32:0.32574175 33:0.38583132 34:0.36628536 35:0.16892985 36:0.2278196 37:0.17734748 38:0.20629817 39:0.26825413 40:0.27393629 
5 1:0.18661748 2:0.90381457 3:0.15145192 4:0.23529066 5:0.27830063 6:0.070693592 7:0.13675074 8:0.48384361 9:0.88083996 10:0.40643839 11:0.31104177 12:0.50468382 13:0.69587577 14:0.63716185 15:0.28326516 16:0.17592818 17:0.11881868 18:0.36533886 19:0.55459988 20:0.66170374 21:0.060718216 22:0.1478564 23:0.13788399 24:0.45563102 25:0.15922147 26:0.022575524 27:0.0049021068 28:0.21503126 29:0.33299362 30:0.21765157 31:0.32184188 32:0.25139689 33:0.29326544 34:0.24893238 35:0.17432348 36:0.15982192 37:0.11174666 38:0.19133845 39:0.16058209 40:0.24043887 
5 1:0.18114744 2:0.92337517 3:0.11834189 4:0.18336126 5:0.23978658 6:0.21621297 7:0.14379299 8:0.40384168 9:0.92823398 10:0.50790172 11:0.32805277 12:0.52848054 13:0.74259901 14:0.53921776 15:0.24085554 16:0.24214365 17:0.30910578 18:0.53031903 19:0.51909383 20:0.40198531 21:0.12240743 22:0.10358775 23:0.097481491 24:0.25451806 25:0.14715957 26:0.067468871 27:0.037712362 28:0.17806823 29:0.22602837 30:0.29428316 31:0.18920502 32:0.31607849 33:0.30589666 34:0.27250898 35:0.31763174 36:0.31417009 37:0.36910852 38:0.43094019 39:0.19879246 40:0.40499369 
5 1:0.17504134 2:0.84261108 3:0.22407698 4:0.43006465 5:0.31220323 6:0.12513727 7:0.18129708 8:0.45727149 9:0.82775714 10:0.62032295 11:0.40509046 12:0.48714733 13:0.66694842 14:0.67202746 15:0.32739177 16:0.30000041 17:0.20979064 18:0.34310428 19:0.47310756 20:0.52264043 21:0.25373462 22:0.14449286 23:0.42215758 24:0.70233394 25:0.33610221 26:0.042819819 27:0.38755728 28:0.3536005 29:0.51678335 30:0.23608264 31:0.20545657 32:0.35360082 33:0.34657493 34:0.27048436 35:0.19618908 36:0.37272237 37:0.17425058 38:0.20162033 39:0.33125558 40:0.51916769 
5 1:0.11703346 2:0.81152446 3:0.14893374 4:0.39183773 5:0.20283323 6:0.18434362 7:0.1007206 8:0.44883759 9:0.87502974 10:0.57211896 11:0.45270641 12:0.64029379 13:0.65589826 14:0.63016613 15:0.44032958 16:0.27826848 17:0.3500547 18:0.43857225 19:0.26183033 20:0.39868222 21:0.10854158 22:0.23521875 23:0.11851295 24:0.29192745 25:0.2508126 26:0.056698412 27:0.09403741 28:0.15002694 29:0.1766898 30:0.28401945 31:0.31910302 32:0.30950227 33:0.32291843 34:0.28239974 35:0.31677793 36:0.3272532 37:0.23059332 38:0.27822773 39:0.28035881 40:0.38364521 
5 1:0.14222109 2:0.83157123 3:0.15357613 4:0.34174175 5:0.22942363 6:0.15746398 7:0.1308549 8:0.45268246 9:0.8855219 10:0.55164489 11:0.37018832 12:0.57985999 13:0.73064101 14:0.51639632 15:0.32860659 16:0.33754416 17:0.36610743 18:0.47255811 19:0.36054119 20:0.37210736 21:0.11957669 22:0.16568513 23:0.11754168 24:0.38612868 25:0.16708623 26:0.047059395 27:0.065361008 28:0.18923562 29:0.21702431 30:0.28434056 31:0.26310001 32:0.30952331 33:0.31349169 34:0.23155704 35:0.2526093 36:0.25565348 37:0.26591534 38:0.31037872 39:0.28222279 40:0.51299984 
5 1:0.21218674 2:0.8885538 3:0.20610043 4:0.36593778 5:0.42843913 6:0.087600567 7:0.21012119 8:0.4767204 9:0.82050485 10:0.49852192 11:0.44736783 12:0.57936979 13:0.69809505 14:0.59236758 15:0.36927051 16:0.46458751 17:0.467652 18:0.39258347 19:0.40035761 20:0.6137918 21:0.15682855 22:0.13784067 23:0.15130857 24:0.22750562 25:0.25278304 26:0.028430226 27:0.2087731 28:0.12279337 29:0.27174852 30:0.21144243 31:0.23657262 32:0.29926446 33:0.40478851 34:0.7420439 35:0.21814947 36:0.33065882 37:0.29456273 38:0.2960639 39:0.23933898 40:0.62612439 
5 1:0.2140949 2:0.87260509 3:0.19008652 4:0.33981838 5:0.36909552 6:0.11344494 7:0.21568949 8:0.46105703 9:0.8532888 10:0.48629611 11:0.43388639 12:0.50211689 13:0.58096112 14:0.73583217 15:0.30184809 16:0.34662533 17:0.5466386 18:0.27980004 19:0.25631666 20:0.43995662 21:0.17722827 22:0.1539828 23:0.1237946 24:0.26976731 25:0.20708366 26:0.02857164 27:0.19095052 28:0.13651012 29:0.22422894 30:0.24901827 31:0.29956211 32:0.37368465 33:0.39229387 34:0.36561448 35:0.25727264 36:0.22087852 37:0.23339654 38:0.25875461 39:0.35316948 40:0.51307846 
5 1:0.12899122 2:0.84352213 3:0.13887097 4:0.34161763 5:0.25846411 6:0.17396668 7:0.13183754 8:0.43359056 9:0.87889699 10:0.58522044 11:0.39869016 12:0.63479787 13:0.85789488 14:0.7001 15:0.41460084 16:0.31568272 17:0.30371586 18:0.44715656 19:0.43513191 20:0.46602288 21:0.10546845 22:0.15455139 23:0.10746194 24:0.27898027 25:0.1853111 26:0.056050249 27:0.062407387 28:0.1325909 29:0.18909441 30:0.21708279 31:0.19370928 32:0.24639462 33:0.36297963 34:0.24275471 35:0.24580233 36:0.18229655 37:0.26783215 38:0.13274758 39:0.21308752 40:0.21026783 
5 1:0.10622058 2:0.84997304 3:0.13707803 4:0.39403826 5:0.19425256 6:0.13701216 7:0.10661644 8:0.40238923 9:0.89218323 10:0.65929886 11:0.47171047 12:0.57592919 13:0.72462232 14:0.62875827 15:0.4644338 16:0.36606372 17:0.28140404 18:0.47510904 19:0.43584595 20:0.51134339 21:0.10187516 22:0.17424926 23:0.15356032 24:0.39415132 25:0.21815287 26:0.050806827 27:0.077371374 28:0.15708381 29:0.180666 30:0.18958496 31:0.25921478 32:0.2709527 33:0.31494408 34:0.23377171 35:0.21032102 36:0.25758856 37:0.20976203 38:0.1943367 39:0.23755969 40:0.26323543 
5 1:0.22249078 2:0.91827477 3:0.20699459 4:0.28192847 5:0.21402444 6:0.25153976 7:0.16311824 8:0.50455879 9:0.80855928 10:0.39951046 11:0.41839254 12:0.62548909 13:0.74519565 14:0.65020112 15:0.12538238 16:0.28469728 17:0.62896888 18:0.49980013 19:0.3924397 20:0.45771826 21:0.12483992 22:0.13178601 23:0.10498489 24:0.23655143 25:0.21107466 26:0.084945278 27:0.096660563 28:0.14384085 29:0.19911402 30:0.28433624 31:0.26997976 32:0.33457782 33:0.27386165 34:0.28642373 35:0.19977511 36:0.3052812 37:0.42319451 38:0.26773532 39:0.44267626 40:0.42182954 
5 1:0.18188757 2:0.82913137 3:0.19240732 4:0.31644457 5:0.37668919 6:0.17904175 7:0.17606378 8:0.47700802 9:0.8233762 10:0.45099591 11:0.39394165 12:0.42607774 13:0.58228278 14:0.64957397 15:0.32518338 16:0.2335661 17:0.34057896 18:0.2872121 19:0.38773812 20:0.78537147 21:0.096951094 22:0.23847901 23:0.10989958 24:0.2703318 25:0.2042008 26:0.048509955 27:0.14150474 28:0.13027299 29:0.2266225 30:0.18427015 31:0.36337333 32:0.35268926 33:0.35543991 34:0.29230912 35:0.25668643 36:0.28846792 37:0.29555142 38:0.33050294 39:0.32461414 40:0.24322912 
5 1:0.14044015 2:0.88993844 3:0.160551 4:0.35290472 5:0.2573823 6:0.14736547 7:0.12790698 8:0.45831037 9:0.86791926 10:0.55431476 11:0.384795 12:0.6010675 13:0.61416884 14:0.54318731 15:0.47306255 16:0.3133276 17:0.28802481 18:0.52764629 19:0.28926753 20:0.28204354 21:0.12516189 22:0.11698395 23:0.12370252 24:0.41643474 25:0.24404076 26:0.034553394 27:0.10524687 28:0.14122897 29:0.19473909 30:0.31904828 31:0.21188912 32:0.34186627 33:0.44810227 34:0.29140373 35:0.28632307 36:0.36800446 37:0.23330619 38:0.2229926 39:0.32009605 40:0.31506199 
5 1:0.13522453 2:0.81127605 3:0.18342776 4:0.40673023 5:0.24511703 6:0.14284824 7:0.12888962 8:0.44807327 9:0.83866057 10:0.54223358 11:0.47258724 12:0.64436927 13:0.70954792 14:0.54958763 15:0.35624557 16:0.38064371 17:0.37108422 18:0.36350088 19:0.2433518 20:0.41330996 21:0.09781905 22:0.28637967 23:0.1425703 24:0.43423063 25:0.21383282 26:0.03827434 27:0.09933665 28:0.12711696 29:0.17560183 30:0.24319596 31:0.24436866 32:0.32860139 33:0.33774122 34:0.36147484 35:0.29350509 36:0.2540628 37:0.27397226 38:0.35086298 39:0.30318465 40:0.33976356 
5 1:0.094517237 2:0.89784109 3:0.13026345 4:0.32190982 5:0.12468828 6:0.095192865 7:0.070094989 8:0.45269212 9:0.8749778 10:0.62237412 11:0.5403568 12:0.44539799 13:0.50544409 14:0.59808228 15:0.30464718 16:0.23095897 17:0.41875678 18:0.29450106 19:0.32342044 20:0.65984585 21:0.02739805 22:0.079958616 23:0.082289215 24:0.2270853 25:0.12364187 26:0.021016432 27:0.04245349 28:0.13531196 29:0.17161546 30:0.17099276 31:0.17879057 32:0.30069784 33:0.38576007 34:0.28996365 35:0.49995036 36:0.19092264 37:0.20073692 38:0.30052802 39:0.19203317 40:0.26788638 
5 1:0.12161303 2:0.86457501 3:0.13637271 4:0.34853643 5:0.24389885 6:0.14541721 7:0.11971831 8:0.42899505 9:0.9006654 10:0.58549126 11:0.42065227 12:0.53255815 13:0.62339133 14:0.62316466 15:0.46151209 16:0.35362912 17:0.36032089 18:0.48647333 19:0.28344692 20:0.39725694 21:0.066831704 22:0.14551238 23:0.054080861 24:0.159792 25:0.19042354 26:0.089244785 27:0.075013971 28:0.14980289 29:0.11284559 30:0.12058781 31:0.17065721 32:0.31492739 33:0.35149245 34:0.2790086 35:0.18216917 36:0.35918735 37:0.22804277 38:0.38283306 39:0.2443208 40:0.25822035 
5 1:0.066530976 2:0.7375114 3:0.14929063 4:0.4948009 5:0.11216407 6:0.074295257 7:0.056665575 8:0.77466536 9:0.78337928 10:0.69439422 11:0.64873605 12:0.71467605 13:0.70466585 14:0.64620026 15:0.52483638 16:0.61287519 17:0.62253133 18:0.5357348 19:0.50817209 20:0.399777 21:0.095195073 22:0.21711648 23:0.25016184 24:0.54334554 25:0.21316212 26:0.039870019 27:0.088169812 28:0.2828318 29:0.28654664 30:0.21059126 31:0.23478705 32:0.30746467 33:0.32666765 34:0.19754543 35:0.21005763 36:0.29588486 37:0.20587718 38:0.21689314 39:0.30731905 40:0.2157918 
5 1:0.16651825 2:0.76186345 3:0.25956058 4:0.62495477 5:0.27971181 6:0.084584452 7:0.21552571 8:0.83198117 9:0.69104957 10:0.68388511 11:0.77070558 12:0.69026132 13:0.70923143 14:0.66259021 15:0.45528647 16:0.60325866 17:0.42016513 18:0.57646998 19:0.582466 20:0.48419027 21:0.22013221 22:0.28278017 23:0.21577905 24:0.3766962 25:0.37696583 26:0.025150263 27:0.32849565 28:0.27935676 29:0.25083868 30:0.23222755 31:0.41100138 32:0.32399457 33:0.349557 34:0.28746565 35:0.29507993 36:0.25597973 37:0.32898611 38:0.30412061 39:0.3256475 40:0.208935 
5 1:0.19196031 2:0.77939968 3:0.29304476 4:0.63791458 5:0.30136973 6:0.074843221 7:0.22207665 8:0.83406353 9:0.66990243 10:0.70164226 11:0.70828022 12:0.71172904 13:0.65568191 14:0.61567866 15:0.41283312 16:0.53842529 17:0.54347907 18:0.55977972 19:0.59853607 20:0.43672548 21:0.18229808 22:0.32154497 23:0.2157413 24:0.48288895 25:0.3927593 26:0.014851864 27:0.38673737 28:0.19247598 29:0.20174497 30:0.41313698 31:0.450928 32:0.38378243 33:0.48058286 34:0.42620643 35:0.33665854 36:0.3409429 37:0.29051698 38:0.36370617 39:0.39803065 40:0.31174434 
5 1:0.14260272 2:0.79590016 3:0.24477938 4:0.58263043 5:0.26553056 6:0.081870601 7:0.17982312 8:0.82821385 9:0.69456497 10:0.66609853 11:0.74374631 12:0.67540155 13:0.66657206 14:0.64443469 15:0.47593977 16:0.64091976 17:0.50744349 18:0.50479978 19:0.46382585 20:0.41493086 21:0.2157945 22:0.24653787 23:0.20891304 24:0.3153864 25:0.35734603 26:0.017572469 27:0.30379465 28:0.2320244 29:0.28773206 30:0.21643359 31:0.38570398 32:0.42726275 33:0.43277999 34:0.24470857 35:0.2418501 36:0.31608384 37:0.28468504 38:0.2299775 39:0.25392834 40:0.21360417 
5 1:0.06843913 2:0.75352636 3:0.17930718 4:0.58495195 5:0.099180871 6:0.12618783 7:0.052898788 8:0.76803662 9:0.74569655 10:0.75714706 11:0.64668995 12:0.69294722 13:0.70592434 14:0.66634852 15:0.51469719 16:0.55266527 17:0.52492754 18:0.49398312 19:0.42465209 20:0.44907137 21:0.085985355 22:0.15136518 23:0.24837883 24:0.53414191 25:0.23177171 26:0.035262588 27:0.068838197 28:0.33636891 29:0.27144137 30:0.24092988 31:0.20734035 32:0.41565667 33:0.2381887 34:0.34280695 35:0.24564895 36:0.14945089 37:0.19119242 38:0.16934626 39:0.24104519 40:0.3002965 
5 1:0.20964254 2:0.8816373 3:0.30078272 4:0.63637561 5:0.33228875 6:0.078004829 7:0.2782509 8:0.84121843 9:0.66222537 10:0.68876763 11:0.70304243 12:0.56775885 13:0.6593263 14:0.58908251 15:0.42027063 16:0.59525727 17:0.61226821 18:0.66336053 19:0.45710332 20:0.49835229 21:0.22440381 22:0.10425798 23:0.19949329 24:0.37987386 25:0.36224518 26:0.016295045 27:0.35495727 28:0.20950957 29:0.27335549 30:0.33709083 31:0.40265437 32:0.39095018 33:0.43429442 34:0.39168844 35:0.24244397 36:0.3674339 37:0.27416625 38:0.34657156 39:0.32538973 40:0.47618931 
5 1:0.2984451 2:0.80801416 3:0.35642345 4:0.65024382 5:0.42811453 6:0.075029123 7:0.39121671 8:0.85428326 9:0.58976053 10:0.6698936 11:0.8122907 12:0.64362097 13:0.72584041 14:0.5561016 15:0.57369979 16:0.69734643 17:0.37828808 18:0.55738157 19:0.5406262 20:0.52366359 21:0.29358427 22:0.15614308 23:0.14316013 24:0.2949155 25:0.21123137 26:0.012009363 27:0.23386081 28:0.18729058 29:0.23148096 30:0.21774694 31:0.33536944 32:0.3706706 33:0.41236588 34:0.45925232 35:0.2810583 36:0.35134411 37:0.20860495 38:0.43448139 39:0.39184375 40:0.29822281 
5 1:0.1719883 2:0.687232 3:0.27490652 4:0.60667881 5:0.30393099 6:0.065137321 7:0.21143138 8:0.84848861 9:0.68758243 10:0.70544595 11:0.72688568 12:0.59635654 13:0.6298771 14:0.65786317 15:0.47434321 16:0.55445307 17:0.43895396 18:0.53750153 19:0.50607272 20:0.51246219 21:0.18935033 22:0.3570518 23:0.22066432 24:0.40462159 25:0.40142319 26:0.020379614 27:0.31104047 28:0.2968975 29:0.27048733 30:0.30524508 31:0.43429572 32:0.4236758 33:0.45132854 34:0.35716955 35:0.22962303 36:0.2793678 37:0.25750839 38:0.27207309 39:0.39777816 40:0.29322324 
5 1:0.20340924 2:0.79392593 3:0.32242738 4:0.69115806 5:0.3185467 6:0.085494602 7:0.23812643 8:0.84820055 9:0.67839272 10:0.75436992 11:0.64131778 12:0.65853964 13:0.68962921 14:0.63570848 15:0.4407826 16:0.5201732 17:0.45428463 18:0.53622954 19:0.53609181 20:0.4938601 21:0.23495172 22:0.25471802 23:0.26912285 24:0.5093573 25:0.4187366 26:0.02950055 27:0.39479122 28:0.22143263 29:0.33402585 30:0.21913761 31:0.54070115 32:0.41779389 33:0.4622353 34:0.44122249 35:0.25679731 36:0.23555818 37:0.29586738 38:0.31402713 39:0.41599077 40:0.27402733 
5 1:0.16066658 2:0.81825501 3:0.26944607 4:0.60237988 5:0.2881654 6:0.076231893 7:0.20684573 8:0.870774 9:0.6849557 10:0.69613675 11:0.68820854 12:0.62013983 13:0.74472461 14:0.56797007 15:0.45803757 16:0.5861902 17:0.48372008 18:0.47193297 19:0.42309513 20:0.42622762 21:0.15510344 22:0.25928633 23:0.14677199 24:0.32327169 25:0.24798606 26:0.015681404 27:0.30553514 28:0.16151799 29:0.1434082 30:0.23329661 31:0.48387203 32:0.37494411 33:0.34023905 34:0.28356463 35:0.24550001 36:0.25090176 37:0.1474272 38:0.20437759 39:0.25127316 40:0.31621378 
5 1:0.091973031 2:0.76156179 3:0.20512865 4:0.61037693 5:0.1620179 6:0.11443268 7:0.076645922 8:0.77385706 9:0.73495335 10:0.76079151 11:0.64771543 12:0.65194156 13:0.68385923 14:0.59121212 15:0.50044926 16:0.60164044 17:0.54891987 18:0.53105974 19:0.42641109 20:0.37862981 21:0.11276473 22:0.16915791 23:0.25591374 24:0.54373463 25:0.28165649 26:0.034260219 27:0.11022791 28:0.33113457 29:0.2774347 30:0.24255207 31:0.32226125 32:0.38911944 33:0.35032985 34:0.33150062 35:0.20706148 36:0.23558846 37:0.17809714 38:0.21545766 39:0.22680766 40:0.25214977 
5 1:0.19590383 2:0.82322724 3:0.34409862 4:0.75383172 5:0.26782619 6:0.088806214 7:0.29315427 8:0.82097874 9:0.67645706 10:0.80486055 11:0.56055644 12:0.63473748 13:0.57693986 14:0.55463914 15:0.48516237 16:0.52728605 17:0.58181193 18:0.52461208 19:0.4955603 20:0.4667888 21:0.25365798 22:0.23406088 23:0.36215235 24:0.61642747 25:0.36290423 26:0.023031488 27:0.52838811 28:0.31429888 29:0.40784735 30:0.26491202 31:0.2831663 32:0.48646703 33:0.21456055 34:0.32293943 35:0.30731685 36:0.32208483 37:0.29582322 38:0.18928145 39:0.29859115 40:0.28328965 
5 1:0.20760717 2:0.83446642 3:0.32502081 4:0.67208248 5:0.35930586 6:0.071999387 7:0.3003603 8:0.85829038 9:0.63799749 10:0.716591 11:0.66481712 12:0.61788788 13:0.65667777 14:0.5493179 15:0.49965251 16:0.61838384 17:0.51689971 18:0.61506747 19:0.59535334 20:0.51792313 21:0.24559826 22:0.16673728 23:0.22540517 24:0.23957642 25:0.40357521 26:0.017358312 27:0.4008457 28:0.19840038 29:0.3299783 30:0.22320814 31:0.38465034 32:0.3767323 33:0.29264239 34:0.42083794 35:0.28139752 36:0.28361905 37:0.26222181 38:0.26907902 39:0.35986233 40:0.16970949 
5 1:0.16410126 2:0.80230103 3:0.2447972 4:0.60728939 5:0.24532496 6:0.081908155 7:0.18358991 8:0.84395332 9:0.70827818 10:0.72426405 11:0.71645727 12:0.6892875 13:0.73874385 14:0.5962326 15:0.47243728 16:0.63499471 17:0.40107743 18:0.44896919 19:0.53311732 20:0.56838503 21:0.23748096 22:0.25845914 23:0.23015364 24:0.36093729 25:0.40972431 26:0.022249588 27:0.32204443 28:0.24244148 29:0.29372957 30:0.31626867 31:0.29744855 32:0.31920285 33:0.3188072 34:0.27002016 35:0.24417433 36:0.28843849 37:0.2546221 38:0.35302984 39:0.30267766 40:0.32434989 
5 1:0.21867447 2:0.84284572 3:0.31840646 4:0.64754655 5:0.37170239 6:0.068813424 7:0.30985915 8:0.84785491 9:0.6554546 10:0.70230528 11:0.73513908 12:0.66185216 13:0.73757423 14:0.62607153 15:0.47197693 16:0.57406365 17:0.44546773 18:0.56788238 19:0.54479806 20:0.51681022 21:0.21521494 22:0.24913792 23:0.21784705 24:0.45077716 25:0.3938606 26:0.016858946 27:0.36495425 28:0.23515657 29:0.26140305 30:0.31550056 31:0.40113593 32:0.43643366 33:0.35845727 34:0.35393503 35:0.27905671 36:0.31998982 37:0.26147935 38:0.2964475 39:0.33490191 40:0.21900588 
5 1:0.22109146 2:0.83400935 3:0.2970582 4:0.60929677 5:0.39260896 6:0.084906827 7:0.30117917 8:0.8570343 9:0.6823611 10:0.65520652 11:0.60424526 12:0.70234331 13:0.6801792 14:0.63344771 15:0.49834282 16:0.55414945 17:0.49843584 18:0.47592664 19:0.50342456 20:0.46734265 21:0.24799051 22:0.20458 23:0.27154036 24:0.43795092 25:0.46800041 26:0.017631811 27:0.41664436 28:0.27302289 29:0.32429106 30:0.37730435 31:0.42164321 32:0.43806663 33:0.41650124 34:0.420006 35:0.20107636 36:0.35794313 37:0.28819911 38:0.2832516 39:0.33223119 40:0.16340209 
5 1:0.16728152 2:0.83604855 3:0.27937683 4:0.57149006 5:0.3597103 6:0.07277161 7:0.22256797 8:0.85524701 9:0.66966488 10:0.62401301 11:0.70463454 12:0.61991486 13:0.74823568 14:0.51009219 15:0.42323256 16:0.60363229 17:0.54586853 18:0.43202082 19:0.4495013 20:0.40541956 21:0.17515864 22:0.21569053 23:0.16904043 24:0.30480768 25:0.32186941 26:0.018148513 27:0.2811305 28:0.24624791 29:0.1684814 30:0.23162036 31:0.24676635 32:0.33523454 33:0.46443603 34:0.36705398 35:0.28760247 36:0.2556969 37:0.28885627 38:0.24212322 39:0.25927068 40:0.32000012 
5 1:0.10482127 2:0.74480121 3:0.21224602 4:0.56664615 5:0.19133362 6:0.11869032 7:0.1234851 8:0.7995964 9:0.72682806 10:0.71732071 11:0.67979793 12:0.62657823 13:0.68217706 14:0.63844269 15:0.4748487 16:0.60285781 17:0.53047884 18:0.52574281 19:0.46102656 20:0.40311047 21:0.16065262 22:0.26277662 23:0.27443723 24:0.47029006 25:0.36712758 26:0.036902593 27:0.25486145 28:0.31695104 29:0.35141586 30:0.28110741 31:0.39295193 32:0.40873072 33:0.26182511 34:0.37904064 35:0.26584818 36:0.19438795 37:0.21283625 38:0.23950312 39:0.31365347 40:0.29824644 
5 1:0.21123267 2:0.89741389 3:0.3159967 4:0.65965886 5:0.38937777 6:0.048562256 7:0.31247953 8:0.83133526 9:0.60621994 10:0.80528914 11:0.82968251 12:0.54351696 13:0.49261446 14:0.68763687 15:0.59235958 16:0.49545905 17:0.60433655 18:0.67065759 19:0.47803202 20:0.6747974 21:0.026314109 22:0.028591652 23:0.021171414 24:0.066119766 25:0.013807023 26:0.0057980103 28:0.05523171 29:0.092859615 30:0.082768235 31:0.12139817 32:0.017751757 33:0.10066106 34:0.30089996 35:0.18457096 36:0.12037232 37:0.25481695 38:0.13644251 39:0.032438917 40:0.21523821 
5 1:0.48492558 2:0.8608679 3:0.60370459 4:0.7692713 5:0.70498654 6:0.046638906 7:0.61677039 8:0.90473116 9:0.4630115 10:0.53880446 11:0.40935362 12:0.48885849 13:0.51428737 14:0.45327296 15:0.50107422 16:0.66911635 17:0.66475701 18:0.62355597 19:0.30227131 20:0.30374756 21:0.18385419 22:0.19391122 23:0.19187623 24:0.22621745 25:0.2683243 26:0.012174942 27:0.2089451 28:0.2171517 29:0.32016487 30:0.30982465 31:0.53141781 32:0.55476419 33:0.55746488 34:0.45001226 35:0.40494955 36:0.49739313 37:0.31757438 38:0.49681052 39:0.30399014 40:0.3408733 
5 1:0.32731205 2:0.91675764 3:0.48229896 4:0.7576291 5:0.64123007 6:0.024732359 7:0.4680642 8:0.96877377 9:0.54020166 10:0.58296075 11:0.68502127 12:0.63232363 13:0.64671099 14:0.58941984 15:0.49803642 16:0.65806048 17:0.43044459 18:0.51421354 19:0.41676679 20:0.42114506 21:0.10058822 22:0.057487652 23:0.052572205 24:0.14807463 25:0.14283771 26:0.0043437726 27:0.081179051 28:0.17980097 29:0.10731877 30:0.097300596 31:0.076635387 32:0.32059406 33:0.29275533 34:0.21559247 35:0.11245392 36:0.18049513 37:0.30958374 38:0.14670585 39:0.23508479 40:0.13321813 
5 1:0.24602468 2:0.83681901 3:0.34046412 4:0.65721613 5:0.45200621 6:0.070331734 7:0.30707501 8:0.89401756 9:0.6464884 10:0.65900969 11:0.64166736 12:0.70897963 13:0.7116877 14:0.58237407 15:0.47638806 16:0.67182924 17:0.53026645 18:0.44948068 19:0.37409199 20:0.44658803 21:0.15305018 22:0.21106401 23:0.1873182 24:0.28969374 25:0.3151017 26:0.016370415 27:0.30395321 28:0.1477704 29:0.20533596 30:0.23384691 31:0.56550697 32:0.30398106 33:0.42798076 34:0.4073919 35:0.34250746 36:0.37848252 37:0.23952125 38:0.30977542 39:0.27674735 40:0.25053531 
5 1:0.11232668 2:0.79815564 3:0.24393253 4:0.63660182 5:0.21726872 6:0.091598906 7:0.13478546 8:0.81400942 9:0.70834631 10:0.72657926 11:0.64397994 12:0.66132695 13:0.76250689 14:0.64616397 15:0.50628812 16:0.55130665 17:0.47582975 18:0.48184912 19:0.47348497 20:0.48329676 21:0.18440578 22:0.20822694 23:0.2399944 24:0.42359336 25:0.39220947 26:0.03408326 27:0.26906963 28:0.3044832 29:0.26983846 30:0.23515872 31:0.24466262 32:0.37328823 33:0.30145625 34:0.29977913 35:0.19395857 36:0.22253516 37:0.28443459 38:0.24136742 39:0.35326465 40:0.32897608 
5 1:0.17046177 2:0.78443353 3:0.3256743 4:0.77318156 5:0.25070344 6:0.086909587 7:0.17392728 8:0.84046327 9:0.66408051 10:0.76166023 11:0.59390435 12:0.70583247 13:0.69556057 14:0.57801421 15:0.48503296 16:0.57932444 17:0.54065964 18:0.47478824 19:0.483946 20:0.53272489 21:0.17395403 22:0.21680751 23:0.22521671 24:0.27242314 25:0.33232424 26:0.028171395 27:0.34053535 28:0.21343567 29:0.19275801 30:0.19429886 31:0.23058095 32:0.36169074 33:0.38342494 34:0.39171492 35:0.31918036 36:0.42790007 37:0.25700599 38:0.29319766 39:0.29689682 40:0.30113512 
5 1:0.1436204 2:0.80087688 3:0.2714544 4:0.65803922 5:0.23189882 6:0.082991059 7:0.15935146 8:0.81442684 9:0.70759427 10:0.75298101 11:0.6228735 12:0.67100961 13:0.74712835 14:0.62623774 15:0.53089599 16:0.53645555 17:0.44069556 18:0.46751251 19:0.5376657 20:0.55104762 21:0.22735947 22:0.23508764 23:0.32905713 24:0.51735311 25:0.37065559 26:0.042694374 27:0.32764807 28:0.30800596 29:0.32647988 30:0.13442382 31:0.21924586 32:0.3481671 33:0.31509477 34:0.39655159 35:0.22462546 36:0.19797399 37:0.25135328 38:0.26523255 39:0.26520672 40:0.31248268 
5 1:0.083227325 2:0.69297243 3:0.16767521 4:0.57884263 5:0.083720908 6:0.150928 7:0.061701605 8:0.76778838 9:0.73523452 10:0.82141453 11:0.72443698 12:0.7151106 13:0.79574556 14:0.4745321 15:0.61312903 16:0.60810521 17:0.41712171 18:0.55587127 19:0.49591752 20:0.56491119 21:0.081561609 22:0.41289316 23:0.22322974 24:0.36922148 25:0.2134592 26:0.033148582 27:0.087838017 28:0.34931371 29:0.13236586 30:0.22562686 31:0.11131709 32:0.087698554 33:0.39044343 34:0.18535984 35:0.15993477 36:0.21581695 37:0.12842448 38:0.12787095 39:0.13844879 40:0.13570682 
5 1:0.1918331 2:0.7963953 3:0.3334874 4:0.73064069 5:0.28046003 6:0.06993124 7:0.22535211 8:0.84410548 9:0.65008771 10:0.73147662 11:0.6461613 12:0.66657118 13:0.64247287 14:0.58089843 15:0.45151833 16:0.59256199 17:0.47655488 18:0.52555357 19:0.4671023 20:0.49556344 21:0.30802719 22:0.20992562 23:0.3092924 24:0.41258154 25:0.35719734 26:0.022494017 27:0.40865367 28:0.21882436 29:0.25502247 30:0.21062892 31:0.32830652 32:0.42379072 33:0.2721224 34:0.25549613 35:0.24481413 36:0.25637626 37:0.23991152 38:0.25547982 39:0.30375551 40:0.36820945 
5 1:0.25721918 2:0.87058097 3:0.37304963 4:0.68520377 5:0.46522216 6:0.048754744 7:0.34883721 8:0.89901718 9:0.6136278 10:0.64881125 11:0.73996475 12:0.70515138 13:0.71521475 14:0.60728752 15:0.5108484 16:0.64620033 17:0.39101597 18:0.47370922 19:0.59641117 20:0.57415081 21:0.26461467 22:0.19207099 23:0.21613056 24:0.23925877 25:0.39778893 26:0.011630655 27:0.30744848 28:0.16320773 29:0.18425988 30:0.19009229 31:0.25455983 32:0.40051379 33:0.35613682 34:0.35009322 35:0.27189331 36:0.23220313 37:0.25290261 38:0.19355917 39:0.27079786 40:0.27543576 
5 1:0.27362931 2:0.87876922 3:0.41307132 4:0.72797212 5:0.53774812 6:0.049528847 7:0.4207337 8:0.91056407 9:0.60315077 10:0.63225448 11:0.62836482 12:0.67464421 13:0.62534797 14:0.5960651 15:0.4592351 16:0.54344417 17:0.48405804 18:0.58739228 19:0.5882066 20:0.45621077 21:0.14278184 22:0.1372696 23:0.16378089 24:0.22221658 25:0.26370515 26:0.0099961517 27:0.29201459 28:0.15882671 29:0.13389873 30:0.17539944 31:0.35057348 32:0.3886862 33:0.53931718 34:0.29558189 35:0.23226198 36:0.31796239 37:0.25415674 38:0.2386882 39:0.36231168 40:0.32549084 
5 1:0.1942501 2:0.8155191 3:0.32113484 4:0.68351039 5:0.34584052 6:0.065897251 7:0.22273174 8:0.86390981 9:0.63761264 10:0.6738168 11:0.65919124 12:0.72506772 13:0.64715092 14:0.59025268 15:0.44481532 16:0.51258638 17:0.54771295 18:0.47808119 19:0.39056052 20:0.43851526 21:0.17789907 22:0.21360773 23:0.20857805 24:0.23569708 25:0.38878347 26:0.0210646 27:0.29707045 28:0.19794162 29:0.20202086 30:0.18961194 31:0.23720491 32:0.23055023 33:0.33194224 34:0.31341331 35:0.26584934 36:0.19829498 37:0.25841057 38:0.27928043 39:0.30576013 40:0.30686459 
5 1:0.25174914 2:0.84592413 3:0.40194534 4:0.7840527 5:0.41511542 6:0.062886783 7:0.35833606 8:0.88408632 9:0.62491093 10:0.72285443 11:0.58180183 12:0.63917945 13:0.64532589 14:0.56283474 15:0.50982911 16:0.54635011 17:0.53927617 18:0.50430926 19:0.49795315 20:0.48238405 21:0.27511106 22:0.19955641 23:0.27442216 24:0.24753908 25:0.48022144 26:0.012090728 27:0.5121123 28:0.18841491 29:0.32241717 30:0.22639981 31:0.307846 32:0.32831403 33:0.52111981 34:0.25845598 35:0.23822611 36:0.30411299 37:0.23316168 38:0.21655613 39:0.36093894 40:0.38924638 
5 1:0.20061061 2:0.79687397 3:0.38801851 4:0.83025938 5:0.27941802 6:0.054076206 7:0.19931215 8:0.86624963 9:0.61490873 10:0.76262382 11:0.61451888 12:0.70225775 13:0.78231549 14:0.64587525 15:0.50349012 16:0.5194489 17:0.53823443 18:0.47175974 19:0.52930124 20:0.57192874 21:0.16662435 22:0.18714004 23:0.099531186 24:0.12213326 25:0.1833891 26:0.0232167 27:0.26008993 28:0.16736941 29:0.12559089 30:0.11984308 31:0.15129739 32:0.31359757 33:0.38492528 34:0.26889142 35:0.20073287 36:0.32116911 37:0.28142369 38:0.31488484 39:0.19697003 40:0.2891801 
5 1:0.23976144 2:0.83951562 3:0.43099582 4:0.87924966 5:0.38225657 6:0.035097172 7:0.35149612 8:0.89456617 9:0.62300394 10:0.70084672 11:0.50619758 12:0.68223959 13:0.57162755 14:0.62261148 15:0.51154715 16:0.63254664 17:0.63537576 18:0.48787316 19:0.49002231 20:0.45977666 21:0.15184323 22:0.22349736 23:0.12891367 24:0.25198266 25:0.19337849 26:0.012626236 27:0.43497238 28:0.15522678 29:0.11539084 30:0.19504177 31:0.14612286 32:0.36494373 33:0.21348502 34:0.28359324 35:0.24676596 36:0.39931219 37:0.29897841 38:0.27804265 39:0.19280858 40:0.29954547 
5 1:0.47729297 2:0.88608576 3:0.53675388 4:0.70396237 5:0.71492331 6:0.041715388 7:0.53390108 8:0.92771288 9:0.4882768 10:0.57694407 11:0.62855071 12:0.59719933 13:0.51564665 14:0.5768823 15:0.47964246 16:0.6457382 17:0.46035486 18:0.40275357 19:0.48738573 20:0.54935808 21:0.27601689 22:0.1481732 23:0.18999997 24:0.32282297 25:0.33885465 26:0.010163995 27:0.37123317 28:0.16553624 29:0.31993187 30:0.25907627 31:0.46675056 32:0.55954375 33:0.51549587 34:0.36685197 35:0.16140995 36:0.25047271 37:0.29935295 38:0.30961086 39:0.19721397 40:0.28543131 
5 1:0.15252512 2:0.64085443 3:0.11463459 4:0.12656506 5:0.231264 6:0.2646966 7:0.13544055 8:0.59540588 9:0.9329529 10:0.36470686 11:0.36118092 12:0.47389607 13:0.69964727 14:0.68615115 15:0.42626524 16:0.45930044 17:0.4651459 18:0.44770497 19:0.46416719 20:0.47385985 21:0.10785533 22:0.42662498 23:0.12209454 24:0.48374865 25:0.2314092 26:0.065879149 27:0.071214102 28:0.2322072 29:0.33005982 30:0.35759627 31:0.4013816 32:0.56016343 33:0.36826477 34:0.37617587 35:0.36763267 36:0.45104992 37:0.42929777 38:0.32243612 39:0.30393489 40:0.61412799 
5 1:0.16651825 2:0.66212429 3:0.11514692 4:0.098294947 5:0.26173715 6:0.19010108 7:0.13527678 8:0.60512274 9:0.95499044 10:0.36177043 11:0.3296248 12:0.30880475 13:0.68619362 14:0.70556538 15:0.49963431 16:0.41096541 17:0.4448446 18:0.42297185 19:0.37872726 20:0.47214577 21:0.042640457 22:0.45075212 23:0.11385656 24:0.45884885 25:0.17486586 26:0.045924546 27:0.032520668 28:0.24902566 29:0.28238788 30:0.19917587 31:0.29685733 32:0.4288662 33:0.36452039 34:0.3185574 35:0.25822197 36:0.36174604 37:0.37895878 38:0.23520242 39:0.19999687 40:0.37730851 
5 1:0.15506933 2:0.63148919 3:0.13130451 4:0.16326429 5:0.25599523 6:0.23440182 7:0.14526695 8:0.60644076 9:0.9039475 10:0.356048 11:0.37122419 12:0.52258108 13:0.68286627 14:0.63801999 15:0.43849409 16:0.45719201 17:0.41441615 18:0.38819128 19:0.3890024 20:0.45512271 21:0.13264118 22:0.40170357 23:0.13953086 24:0.44729088 25:0.31086685 26:0.073662704 27:0.10150379 28:0.17982018 29:0.31630592 30:0.5018484 31:0.45734573 32:0.52835319 33:0.43807212 34:0.30564224 35:0.39274352 36:0.30246801 37:0.35158036 38:0.32505388 39:0.42326341 40:0.46214248 
5 1:0.18979774 2:0.73765235 3:0.15101816 4:0.11904131 5:0.29843359 6:0.1602474 7:0.17048804 8:0.60552548 9:0.88221445 10:0.248237 11:0.3958095 12:0.64161902 13:0.7757876 14:0.63659194 15:0.40090569 16:0.49679768 17:0.46838552 18:0.4185281 19:0.38441454 20:0.36360433 21:0.14476272 22:0.2641617 23:0.13441445 24:0.35676969 25:0.18274089 26:0.028251512 27:0.084280866 28:0.15445784 29:0.3381327 30:0.46286479 31:0.28214561 32:0.60653734 33:0.53192194 34:0.46838574 35:0.21652907 36:0.26118958 37:0.22043529 38:0.27463506 39:0.25080512 40:0.30569513 
5 1:0.21892889 2:0.7667199 3:0.20040442 4:0.18818958 5:0.36724931 6:0.12393948 7:0.19947593 8:0.61943881 9:0.81450931 10:0.24672216 11:0.49319988 12:0.6096718 13:0.74374161 14:0.55850976 15:0.30115742 16:0.58730526 17:0.52793507 18:0.34038504 19:0.4003558 20:0.42483506 21:0.17146932 22:0.24499409 23:0.17339493 24:0.30211586 25:0.25918187 26:0.033795101 27:0.12931888 28:0.14785249 29:0.37862846 30:0.3681284 31:0.34670603 32:0.40362176 33:0.38133842 34:0.33604762 35:0.32254339 36:0.28742254 37:0.30014621 38:0.30077575 39:0.18714026 40:0.30281205 
5 1:0.11198215 2:0.77067876 3:0.099289979 4:0.18021227 5:0.20102329 6:0.27025742 7:0.11390436 8:0.59232912 9:0.93081374 10:0.46052697 11:0.49638797 12:0.56064128 13:0.70244429 14:0.60781037 15:0.43381137 16:0.46518186 17:0.4787431 18:0.43895357 19:0.45967862 20:0.45688339 21:0.11926033 22:0.22541017 23:0.12377325 24:0.43992229 25:0.29492728 26:0.060081549 27:0.1067337 28:0.20303637 29:0.26713063 30:0.38198946 31:0.49678955 32:0.56716727 33:0.33536887 34:0.41454338 35:0.40878235 36:0.42521842 37:0.22771102 38:0.34322551 39:0.41810425 40:0.37142624 
5 1:0.29716321 2:0.77578265 3:0.26259712 4:0.21082939 5:0.34866991 6:0.10242865 7:0.21896495 8:0.46396193 9:0.69971728 10:0.12634077 11:0.3629883 12:0.57745329 13:0.41036721 14:0.35832545 15:0.5413514 16:0.56522394 17:0.49856987 18:0.40683567 19:0.56786965 20:0.60429724 21:0.095269148 22:0.37292859 23:0.11238084 24:0.32150984 25:0.25446243 26:0.033506131 27:0.025692553 28:0.23240881 29:0.26164724 30:0.30678698 31:0.46153592 32:0.37045428 33:0.43806324 34:0.511497 35:0.2800133 36:0.2459017 37:0.26500017 38:0.22076626 39:0.18941907 40:0.34770652 
1.002886903707491 1:0.18420048 2:0.7754019 3:0.21865509 4:0.22600082 5:0.4169739 6:0.15281088 7:0.18691997 8:0.46934549 9:0.76685523 10:0.16586459 11:0.26564434 12:0.50988138 13:0.51041521 14:0.52054864 15:0.50733926 16:0.4423866 17:0.43321381 18:0.41670592 19:0.59429007 20:0.71016992 21:0.038824421 22:0.2094675 23:0.0935662 24:0.36443007 25:0.053379529 26:0.040354518 27:0.040641933 28:0.088936886 29:0.19460311 30:0.2445279 31:0.13364029 32:0.34931187 33:0.3205193 34:0.091346835 35:0.25081214 36:0.14102667 37:0.038352279 38:0.098654767 39:0.25482089 40:0.14044124 
5 1:0.32031548 2:0.63066381 3:0.43638968 4:0.55922325 5:0.44473917 6:0.092031519 7:0.33409761 8:0.88768237 9:0.532779 10:0.33991959 11:0.14648958 12:0.23458391 13:0.48163004 14:0.45611881 15:0.43309608 16:0.53270808 17:0.53152137 18:0.44078854 19:0.44244356 20:0.41725384 21:0.25856889 22:0.50533728 23:0.24839481 24:0.38370299 25:0.40592043 26:0.017394863 27:0.35337905 28:0.21974929 29:0.42490389 30:0.45442258 31:0.33315397 32:0.66905922 33:0.50917251 34:0.45109744 35:0.32499889 36:0.41136574 37:0.2212725 38:0.37789715 39:0.22216633 40:0.27407606 
5 1:0.30288767 2:0.51154466 3:0.3710334 4:0.45854116 5:0.42938831 6:0.090105052 7:0.26367507 8:0.87090086 9:0.55979878 10:0.14984781 11:0.20574643 12:0.41890787 13:0.45149769 14:0.56865246 15:0.41216341 16:0.45527646 17:0.58265043 18:0.41959733 19:0.51012796 20:0.47432593 21:0.14472273 22:0.65471926 23:0.13578935 24:0.23724185 25:0.27068166 26:0.024236384 27:0.14281076 28:0.15916519 29:0.33128118 30:0.32285212 31:0.25526471 32:0.65705713 33:0.53863555 34:0.42298357 35:0.25844628 36:0.32132367 37:0.25936667 38:0.26111337 39:0.20687099 40:0.25067245 
5 1:0.56481364 2:0.83593122 3:0.65077689 4:0.39135249 5:0.52728319 6:0.087972695 7:0.49737963 8:0.59856942 9:0.19018669 10:0.40596268 11:0.73791273 12:0.24689939 13:0.27790862 14:0.48929857 15:0.43118632 16:0.49005399 17:0.63664556 18:0.46987122 19:0.50603691 20:0.54758325 21:0.20339758 22:0.20722756 23:0.23374948 24:0.14400703 25:0.22496594 26:0.014526212 27:0.16301151 28:0.17275941 29:0.52881034 30:0.21003397 31:0.33123678 32:0.46354229 33:0.5678488 34:0.37431802 35:0.27987347 36:0.24968541 37:0.28267062 38:0.21733541 39:0.21314231 40:0.26842542 
5 1:0.56519527 2:0.76311695 3:0.56368575 4:0.30927703 5:0.59501935 6:0.070670205 7:0.46413364 8:0.60943911 9:0.29889585 10:0.42161668 11:0.83110645 12:0.24413184 13:0.24956791 14:0.46062163 15:0.33751329 16:0.37292391 17:0.59379675 18:0.52208102 19:0.49171507 20:0.4867226 21:0.1035892 22:0.50149772 23:0.19089646 24:0.28897365 25:0.16557833 26:0.014815734 27:0.10284773 28:0.24352862 29:0.53855868 30:0.26855347 31:0.24425592 32:0.30566726 33:0.47684275 34:0.33767906 35:0.22660886 36:0.29180398 37:0.28595436 38:0.20225817 39:0.31926436 40:0.25079061 
5 1:0.56786668 2:0.93395216 3:0.53852514 4:0.33408718 5:0.72351461 6:0.057465778 7:0.54536521 8:0.65803785 9:0.35651497 10:0.42827378 11:0.69225219 12:0.15163803 13:0.37288167 14:0.49643832 15:0.4186804 16:0.34692645 17:0.61793289 18:0.49053942 19:0.49354217 20:0.46815435 21:0.1789281 22:0.052679205 23:0.19824165 24:0.14639656 25:0.098297075 26:0.0089709057 27:0.14311949 28:0.24739989 29:0.48964347 30:0.18656269 31:0.43363005 32:0.39465451 33:0.65386338 34:0.6414515 35:0.34691524 36:0.22040821 37:0.20037198 38:0.28442165 39:0.24469655 40:0.39769962 
5 1:0.30772166 2:0.72644119 3:0.31604487 4:0.34495957 5:0.54145228 6:0.08122568 7:0.29528333 8:0.78613124 9:0.66467049 10:0.24019976 11:0.61338992 12:0.5233575 13:0.4493007 14:0.4528916 15:0.26288066 16:0.48038191 17:0.49544483 18:0.37848268 19:0.44984378 20:0.43946972 21:0.1948005 22:0.43821094 23:0.16646132 24:0.38107031 25:0.36098853 26:0.015002338 27:0.2154635 28:0.36088584 29:0.30954659 30:0.4659159 31:0.28818478 32:0.41061371 33:0.55581498 34:0.28044204 35:0.38086071 36:0.30496083 37:0.30168166 38:0.30221149 39:0.23673022 40:0.53494934 
5 1:0.31917059 2:0.4850991 3:0.33298507 4:0.29790846 5:0.43196956 6:0.077391503 7:0.28480183 8:0.72645828 9:0.5865452 10:0.32667473 11:0.73638598 12:0.46513842 13:0.52633053 14:0.51040627 15:0.45040549 16:0.5079706 17:0.41509447 18:0.39662066 19:0.38114058 20:0.50049314 21:0.43842079 22:0.78332306 23:0.38714883 24:0.33768453 25:0.4245942 26:0.024649207 27:0.32261651 28:0.34925417 29:0.8628114 30:0.68328964 31:0.35211459 32:0.47968943 33:0.52788105 34:0.36579088 35:0.23649511 36:0.30509566 37:0.28688636 38:0.22102958 39:0.24526526 40:0.21529395 
5 1:0.27935377 2:0.93368451 3:0.26352997 4:0.261062 5:0.38597953 6:0.034544051 7:0.25696037 8:0.80034294 9:0.71581163 10:0.27678622 11:0.4614605 12:0.25664253 13:0.49958677 14:0.74718578 15:0.40640185 16:0.11227841 17:0.22026335 18:0.62757533 19:0.33576489 20:0.38233717 21:0.190674 22:0.12749557 23:0.12814523 24:0.28671732 25:0.29728337 26:0.015639578 27:0.17856096 28:0.1863162 29:0.35599186 30:0.30580133 31:0.47701375 32:0.48608959 33:0.6068904 34:0.42866156 35:0.38273859 36:0.28391807 37:0.25499689 38:0.34898151 39:0.18780586 40:0.16009031 
5 1:0.3601323 2:0.9206129 3:0.26129423 4:0.19732723 5:0.49171723 6:0.064770535 7:0.32934818 8:0.78934583 9:0.74106443 10:0.29397748 11:0.58186601 12:0.17760477 13:0.26508452 14:0.83998543 15:0.37584695 16:0.17726048 17:0.3726963 18:0.39547866 19:0.25487268 20:0.50209048 21:0.16165213 22:0.15233839 23:0.13579249 24:0.25083866 25:0.13577538 26:0.031726843 27:0.049723835 28:0.13713625 29:0.339471 30:0.18627867 31:0.21854852 32:0.50378435 33:0.3511902 34:0.45086226 35:0.24998479 36:0.46600662 37:0.3139607 38:0.33350087 39:0.2508597 40:0.64993939 
5 1:0.26383942 2:0.95261764 3:0.25175865 4:0.24148294 5:0.43328195 6:0.047380784 7:0.23536958 8:0.79587895 9:0.70668115 10:0.26346728 11:0.4064782 12:0.23228929 13:0.36167079 14:0.74054681 15:0.41054948 16:0.15616475 17:0.28885211 18:0.62011714 19:0.49084949 20:0.5526368 21:0.21152272 22:0.063343687 23:0.14442136 24:0.22230795 25:0.15292084 26:0.01561734 27:0.12329726 28:0.10562017 29:0.33331242 30:0.2930181 31:0.27145362 32:0.39898834 33:0.34827159 34:0.41393646 35:0.34122037 36:0.32755673 37:0.16154312 38:0.29640705 39:0.29256414 40:0.23790239 
5 1:0.61684264 2:0.73116989 3:0.7054954 4:0.5522112 5:0.73396019 6:0.036169016 7:0.6283983 8:0.80741718 9:0.2451666 10:0.27899214 11:0.4664865 12:0.53887725 13:0.23412947 14:0.40210896 15:0.32961634 16:0.59534868 17:0.6109967 18:0.35895567 19:0.47954462 20:0.4887331 21:0.40215886 22:0.49281839 23:0.34195127 24:0.22437551 25:0.38056617 26:0.005959022 27:0.41702967 28:0.21358564 29:0.21104388 30:0.53690679 31:0.47162536 32:0.66504309 33:0.47045166 34:0.37131374 35:0.34344577 36:0.29971933 37:0.2291105 38:0.18839417 39:0.26757065 40:0.25771821 
5 1:0.25454777 2:0.88236873 3:0.36492124 4:0.54331803 5:0.49662601 6:0.065605428 7:0.32721913 8:0.47387673 9:0.62818799 10:0.4969118 11:0.60873327 12:0.51218893 13:0.5865148 14:0.50485574 15:0.26857314 16:0.41206534 17:0.3475393 18:0.36178881 19:0.39056518 20:0.17554998 21:0.18503395 22:0.064804531 23:0.14244154 24:0.21208112 25:0.21902973 26:0.013183113 27:0.21265697 28:0.24415556 29:0.22925773 30:0.20237133 31:0.33719488 32:0.60309813 33:0.52923789 34:0.53383064 35:0.27837208 36:0.37080579 37:0.24523951 38:0.25842687 39:0.19190021 40:0.40255364 
5 1:0.36751049 2:0.91051067 3:0.46199462 4:0.63225419 5:0.63827919 6:0.047630882 7:0.38290206 8:0.48164125 9:0.57354917 10:0.32914809 11:0.50787037 12:0.57677125 13:0.30071105 14:0.63879849 15:0.32197247 16:0.53396265 17:0.25695522 18:0.28715605 19:0.34115016 20:0.36943243 21:0.17665171 22:0.15851025 23:0.17863116 24:0.27916002 25:0.31419105 26:0.019790223 27:0.31796286 28:0.11639682 29:0.19079348 30:0.18639819 31:0.25921397 32:0.35561992 33:0.38965394 34:0.40627487 35:0.39245502 36:0.37281047 37:0.31712306 38:0.32259998 39:0.2274652 40:0.22416505 
5 1:0.40122122 2:0.92555577 3:0.51209845 4:0.64357765 5:0.67688444 6:0.045132733 7:0.44366197 8:0.45661849 9:0.51383152 10:0.36311073 11:0.54512847 12:0.56449653 13:0.33062089 14:0.69477508 15:0.37687456 16:0.49507021 17:0.21502785 18:0.20177275 19:0.37666881 20:0.45166646 21:0.1588808 22:0.088532366 23:0.14585242 24:0.26195984 25:0.26842723 26:0.012303499 27:0.32852141 28:0.096812286 29:0.1990034 30:0.22698199 31:0.31703324 32:0.40655622 33:0.50945362 34:0.47189416 35:0.39553754 36:0.48406348 37:0.31322677 38:0.46649405 39:0.18634766 40:0.33445574 
5 1:0.34206844 2:0.88227255 3:0.40232129 4:0.52391983 5:0.63946612 6:0.039999902 7:0.38519489 8:0.45112183 9:0.61349235 10:0.34494607 11:0.5938505 12:0.49142584 13:0.35964961 14:0.51398211 15:0.18449142 16:0.44381302 17:0.37670308 18:0.40751521 19:0.38548124 20:0.39584807 21:0.19032933 22:0.19409184 23:0.1970218 24:0.31644263 25:0.22207057 26:0.0064868751 27:0.20787972 28:0.16349037 29:0.22135448 30:0.21702087 31:0.28856246 32:0.30628093 33:0.48919434 34:0.34371407 35:0.28763379 36:0.36601123 37:0.2216278 38:0.29207219 39:0.28158132 40:0.3653821 
1.352549191607229 1:0.32603994 2:0.88131345 3:0.38548712 4:0.54861193 5:0.61223453 6:0.042158543 7:0.36472322 8:0.47662097 9:0.65398983 10:0.40291497 11:0.57243329 12:0.40498837 13:0.28705186 14:0.44549268 15:0.33808737 16:0.54229996 17:0.37773969 18:0.41634235 19:0.27156051 20:0.33928794 21:0.23163249 22:0.18662451 23:0.2574762 24:0.41905931 25:0.21919109 26:0.0063349296 27:0.28478969 28:0.12861124 29:0.27693152 30:0.14974588 31:0.29619498 32:0.34247599 33:0.36216938 34:0.36241479 35:0.40860465 36:0.39288306 37:0.33045348 38:0.2255288 39:0.17919686 40:0.3023979 
5 1:0.35752449 2:0.90328937 3:0.47975511 4:0.73861696 5:0.63248851 6:0.043918846 7:0.50061415 8:0.47719839 9:0.61961116 10:0.44893765 11:0.54853492 12:0.63323417 13:0.27101243 14:0.55131134 15:0.15332681 16:0.35823201 17:0.34469025 18:0.41739768 19:0.47045015 20:0.34454191 21:0.21654188 22:0.067797996 23:0.24188321 24:0.40685994 25:0.30679091 26:0.0087877109 27:0.48430916 28:0.19799455 29:0.28172438 30:0.36043118 31:0.28706458 32:0.36260743 33:0.45769445 34:0.31845509 35:0.30921508 36:0.27200566 37:0.22345949 38:0.34149673 39:0.29847781 40:0.30853369 
5 1:0.29003944 2:0.91823417 3:0.27566885 4:0.31760401 5:0.48895915 6:0.11135817 7:0.28398297 8:0.66616281 9:0.71528242 10:0.35590428 11:0.50688412 12:0.36765319 13:0.49673049 14:0.26802204 15:0.26694712 16:0.42530961 17:0.28394158 18:0.62912509 19:0.34569278 20:0.13368308 21:0.23332979 22:0.17236279 23:0.14127493 24:0.16881016 25:0.25252904 26:0.019580944 27:0.25258789 28:0.086761029 29:0.20923245 30:0.22732777 31:0.3261383 32:0.32578825 33:0.43353147 34:0.36711032 35:0.25670417 36:0.2780318 37:0.22972089 38:0.2546547 39:0.43681809 40:0.45398768 
5 1:0.15621422 2:0.90451716 3:0.22593478 4:0.44614497 5:0.23130537 6:0.10252821 7:0.13478546 8:0.66582036 9:0.75637473 10:0.56724782 11:0.41869019 12:0.43518934 13:0.30724547 14:0.19715442 15:0.21091553 16:0.55703538 17:0.44238638 18:0.55984299 19:0.35049636 20:0.29665069 21:0.043215609 22:0.066349775 23:0.079912921 24:0.2282115 25:0.13168195 26:0.025767294 27:0.085267216 28:0.097039345 29:0.10475118 30:0.18397054 31:0.21477485 32:0.3042516 33:0.26114824 34:0.23222588 35:0.23837728 36:0.2552572 37:0.25846059 38:0.23782522 39:0.26590684 40:0.36264534 
5 1:0.18738074 2:0.88106858 3:0.23560983 4:0.41914793 5:0.30219848 6:0.082980491 7:0.15673108 8:0.70518142 9:0.76075877 10:0.52447342 11:0.41910441 12:0.51622579 13:0.32695129 14:0.28238619 15:0.29224668 16:0.38727992 17:0.49319053 18:0.40487465 19:0.27398179 20:0.3422202 21:0.12423208 22:0.085718792 23:0.11451059 24:0.30401739 25:0.158473 26:0.022043324 27:0.083210668 28:0.12847325 29:0.18617448 30:0.2696586 31:0.25350494 32:0.43296834 33:0.35998993 34:0.33879346 35:0.36116511 36:0.36158803 37:0.33885513 38:0.34115577 39:0.35180093 40:0.30819188 
5 1:0.25734639 2:0.86951235 3:0.31100264 4:0.42001316 5:0.38108446 6:0.092141988 7:0.25335735 8:0.6816317 9:0.66623394 10:0.43582962 11:0.49024499 12:0.39642064 13:0.43127867 14:0.23927631 15:0.53316657 16:0.56701664 17:0.15655842 18:0.29723829 19:0.31511781 20:0.41423001 21:0.21408069 22:0.11542581 23:0.15139724 24:0.28381899 25:0.23415659 26:0.027758501 27:0.24796589 28:0.11117785 29:0.28547883 30:0.29801867 31:0.36958585 32:0.28491323 33:0.49868025 34:0.27604035 35:0.70349895 36:0.4207751 37:0.28651483 38:0.35937628 39:0.26811883 40:0.25615502 
5 1:0.33825213 2:0.88828549 3:0.44667352 4:0.67575866 5:0.56676509 6:0.070517092 7:0.40877825 8:0.78505911 9:0.62936289 10:0.39792348 11:0.40868641 12:0.71583057 13:0.85451776 14:0.80953254 15:0.18485643 16:0.6562649 17:0.47201716 18:0.23740704 19:0.35955614 20:0.5726004 21:0.15135669 22:0.17592615 23:0.20242115 24:0.49001705 25:0.20736339 26:0.013222721 27:0.39278645 28:0.20311954 29:0.18267327 30:0.27561052 31:0.28854631 32:0.39198614 33:0.31661623 34:0.28989867 35:0.18762909 36:0.30782156 37:0.23698349 38:0.21751461 39:0.26253472 40:0.19336845 
5 1:0.33901539 2:0.88581066 3:0.43865297 4:0.6184805 5:0.4897464 6:0.091095706 7:0.32197838 8:0.77127528 9:0.59261344 10:0.29440924 11:0.42739633 12:0.70456857 13:0.76158233 14:0.79888402 15:0.26826287 16:0.62778188 17:0.36163135 18:0.24983666 19:0.57739825 20:0.70815908 21:0.13687004 22:0.20866098 23:0.1545576 24:0.31016787 25:0.18069521 26:0.026266761 27:0.16558675 28:0.10459523 29:0.27071181 30:0.29361279 31:0.36212981 32:0.29877396 33:0.33854178 34:0.35398146 35:0.1663657 36:0.28665244 37:0.3416356 38:0.30861861 39:0.42848451 40:0.27148356 
5 1:0.32018827 2:0.90885042 3:0.39760155 4:0.69117066 5:0.543492 6:0.062728433 7:0.3476908 8:0.75269325 9:0.68275263 10:0.49955403 11:0.40184939 12:0.70851007 13:0.85635564 14:0.78464497 15:0.2811919 16:0.61755186 17:0.36842894 18:0.201535 19:0.35174563 20:0.63180138 21:0.21600772 22:0.089079878 23:0.18102268 24:0.41733609 25:0.21401293 26:0.016045148 27:0.43370629 28:0.12292993 29:0.17465799 30:0.32025984 31:0.30371313 32:0.30801292 33:0.36767241 34:0.27178697 35:0.16578914 36:0.32100481 37:0.24524755 38:0.17585677 39:0.22192207 40:0.37007685 
4.26569713916595 1:0.3860832 2:0.82368623 3:0.42130634 4:0.56806624 5:0.4970507 6:0.12087598 7:0.44317065 8:0.70941748 9:0.61905434 10:0.27660658 11:0.31632299 12:0.62762341 13:0.72253062 14:0.67651238 15:0.26077938 16:0.45936165 17:0.29692813 18:0.37062552 19:0.55423444 20:0.67240731 21:0.3265486 22:0.36392737 23:0.30068586 24:0.68265102 25:0.5068083 26:0.040302801 27:0.59381703 28:0.12398913 29:0.31509144 30:0.60640033 31:0.30379415 32:0.33041902 33:0.56559011 34:0.53499111 35:0.24694476 36:0.41699071 37:0.25796285 38:0.38022758 39:0.65693709 40:0.47519689 
5 1:0.24602468 2:0.76536914 3:0.32748577 4:0.53137706 5:0.30127815 6:0.19085386 7:0.21798231 8:0.72178071 9:0.69316842 10:0.24318258 11:0.30955612 12:0.63390599 13:0.69311678 14:0.71197076 15:0.28719109 16:0.40181749 17:0.35559611 18:0.3792088 19:0.57144065 20:0.60439638 21:0.18684286 22:0.47421906 23:0.18735382 24:0.33807484 25:0.34236948 26:0.060390197 27:0.19739173 28:0.16973323 29:0.29852607 30:0.45769788 31:0.26653353 32:0.29882728 33:0.47341831 34:0.52239664 35:0.24805873 36:0.26860469 37:0.25852849 38:0.42129797 39:0.60574613 40:0.47560819 
5 1:0.23533902 2:0.84886383 3:0.31212945 4:0.49845491 5:0.26442745 6:0.15196589 7:0.21880118 8:0.72440984 9:0.69041628 10:0.27409666 11:0.31927326 12:0.61180895 13:0.80848997 14:0.73007561 15:0.18246397 16:0.45648531 17:0.33282124 18:0.4070834 19:0.67981215 20:0.64912986 21:0.18255637 22:0.18899415 23:0.1623273 24:0.24517315 25:0.32284651 26:0.038581124 27:0.23071862 28:0.18670197 29:0.27963082 30:0.48655348 31:0.41952961 32:0.48689167 33:0.39052897 34:0.24240523 35:0.40306933 36:0.24739038 37:0.2495876 38:0.37567854 39:0.33440186 40:0.42083571 
5 1:0.2871136 2:0.90242275 3:0.38075816 4:0.59577767 5:0.35372654 6:0.091619577 7:0.28349165 8:0.71695144 9:0.65826498 10:0.43728439 11:0.29439097 12:0.58141588 13:0.7958381 14:0.69412832 15:0.24869624 16:0.60483366 17:0.35001897 18:0.26835793 19:0.26278169 20:0.52619345 21:0.42758475 22:0.15108623 23:0.44422659 24:0.58252724 25:0.32346572 26:0.026321357 27:0.57828877 28:0.15949286 29:0.33645596 30:0.3863355 31:0.40934347 32:0.46511312 33:0.45057332 34:0.27568935 35:0.30799118 36:0.36936914 37:0.18245051 38:0.27863963 39:0.36352547 40:0.49281874 
5 1:0.37883221 2:0.90530466 3:0.44978606 4:0.54564908 5:0.47558682 6:0.13370916 7:0.40812316 8:0.72924973 9:0.56825048 10:0.2549974 11:0.32189949 12:0.57426951 13:0.74888963 14:0.66961104 15:0.25933952 16:0.60555435 17:0.33571727 18:0.28279365 19:0.46131667 20:0.71929783 21:0.33371842 22:0.15193856 23:0.33080172 24:0.56363359 25:0.3728512 26:0.026263583 27:0.48149754 28:0.16183802 29:0.34006039 30:0.49588024 31:0.54395592 32:0.46708836 33:0.43396901 34:0.32556475 35:0.21458076 36:0.29093445 37:0.26984786 38:0.30104101 39:0.59810922 40:0.58798114 
5 1:0.22859687 2:0.96327304 3:0.39169122 4:0.66836243 5:0.2671474 6:0.0475305 7:0.20242385 8:0.70581931 9:0.6576097 10:0.24139898 11:0.18481015 12:0.59671448 13:0.62858541 14:0.82956478 15:0.3625289 16:0.53155339 17:0.24762071 18:0.34236673 19:0.40089692 20:0.62981857 21:0.078809175 22:0.024223954 23:0.12994995 24:0.2008639 25:0.17828014 26:0.021188042 27:0.11831046 28:0.058902768 29:0.22651005 30:0.093241591 31:0.18875401 32:0.4166317 33:0.31987785 34:0.36756949 35:0.18897807 36:0.28553417 37:0.17374143 38:0.17597708 39:0.20083599 40:0.28449324 
5 1:0.23145002 2:0.93143081 3:0.38643607 4:0.6249166 5:0.27094687 6:0.15132895 7:0.1984231 8:0.66390454 9:0.61524519 10:0.18294287 11:0.15348749 12:0.51269981 13:0.62834366 14:0.79086345 15:0.32566532 16:0.52907488 17:0.24146034 18:0.4276247 19:0.42927902 20:0.73813295 21:0.046420628 22:0.079989354 23:0.041067095 24:0.083500602 25:0.089335488 26:0.03928895 27:0.0072918237 28:0.10231356 29:0.11412902 30:0.098340599 31:0.098558374 32:0.33171308 33:0.22460496 34:0.075568372 35:0.098411604 36:0.13199992 37:0.084217377 38:0.17597493 39:0.23021916 40:0.21831583 
5 1:0.37768732 2:0.78034662 3:0.47252429 4:0.6766634 5:0.63507354 6:0.038841224 7:0.45479856 8:0.41619221 9:0.59186435 10:0.5353838 11:0.54082558 12:0.40032119 13:0.49759751 14:0.62191102 15:0.35971606 16:0.61024917 17:0.60954845 18:0.59370532 19:0.53523565 20:0.59114138 21:0.15725587 22:0.58827105 23:0.12122472 24:0.37612458 25:0.26569443 26:0.010739298 27:0.21861676 28:0.29907252 29:0.15156093 30:0.37264873 31:0.15577654 32:0.28862005 33:0.22076633 34:0.41062821 35:0.25218281 36:0.331148 37:0.31394751 38:0.22069542 39:0.21524429 40:0.32891759 
5 1:0.38659204 2:0.84532879 3:0.45007939 4:0.54896722 5:0.54765305 6:0.057849072 7:0.352604 8:0.43870167 9:0.56472924 10:0.46984296 11:0.50272569 12:0.45007764 13:0.49693054 14:0.62914711 15:0.36485434 16:0.63073674 17:0.83133916 18:0.4934948 19:0.51512577 20:0.58548685 21:0.22524736 22:0.15362953 23:0.19154705 24:0.17410367 25:0.26388248 26:0.01077487 27:0.13275738 28:0.12163167 29:0.27402247 30:0.35617778 31:0.52393835 32:0.48995874 33:0.42242397 34:0.30751004 35:0.19940595 36:0.16399326 37:0.20449122 38:0.26958747 39:0.1217769 40:0.26218482 
5 1:0.23215876 2:0.84237311 3:0.45024126 4:0.69639465 5:0.34469944 6:0.060317112 7:0.27219129 8:0.45676044 9:0.57875623 10:0.59407208 11:0.45203085 12:0.37302758 13:0.17903224 14:0.49454226 15:0.44473472 16:0.58346466 17:0.85596292 18:0.66170278 19:0.48724511 20:0.56393983 21:0.16006664 22:0.12046288 23:0.16962437 24:0.20944534 25:0.30582347 26:0.020207433 27:0.404554 28:0.081584858 29:0.14496405 30:0.2856641 31:0.22938438 32:0.31232943 33:0.38783419 34:0.19779043 35:0.21301466 36:0.12447536 37:0.15941342 38:0.16048665 39:0.18964842 40:0.21106668 
5 1:0.20875207 2:0.80482019 3:0.27082487 4:0.41591613 5:0.32903007 6:0.098497908 7:0.16475598 8:0.52446415 9:0.71282252 10:0.41421394 11:0.30130155 12:0.24353371 13:0.33098143 14:0.53011423 15:0.54797812 16:0.61870721 17:0.50563161 18:0.5355564 19:0.48971476 20:0.31799382 21:0.092460502 22:0.12380093 23:0.15198978 24:0.38337408 25:0.18025381 26:0.027038135 27:0.13931238 28:0.080101451 29:0.16813153 30:0.37305729 31:0.17075719 32:0.73854751 33:0.35152468 34:0.32934991 35:0.21911014 36:0.16335818 37:0.19541946 38:0.25053906 39:0.23654762 40:0.39007497 
5 1:0.26434296 2:0.86819268 3:0.34987926 4:0.44202128 5:0.48424859 6:0.070707671 7:0.2438585 8:0.55148364 9:0.61487335 10:0.36318239 11:0.38861851 12:0.17343855 13:0.33404338 14:0.50115677 15:0.50670945 16:0.5038294 17:0.52862892 18:0.5069627 19:0.70955134 20:0.44044227 21:0.21227765 22:0.1194915 23:0.14508539 24:0.29403251 25:0.2930756 26:0.018869594 27:0.22259053 28:0.12479393 29:0.2772274 30:0.22088931 31:0.37648478 32:0.35898751 33:0.42238486 34:0.20980041 35:0.2072285 36:0.20948272 37:0.22154081 38:0.2462163 39:0.23564177 40:0.28952631 
5 1:0.26179875 2:0.85602417 3:0.37013604 4:0.51873912 5:0.50391548 6:0.04385679 7:0.26989846 8:0.55886344 9:0.62290713 10:0.35800283 11:0.35807965 12:0.30711823 13:0.32042816 14:0.36480242 15:0.40285435 16:0.51865312 17:0.51525147 18:0.51816375 19:0.51411259 20:0.45441299 21:0.19047326 22:0.11702246 23:0.12624037 24:0.30080656 25:0.22039048 26:0.010484113 27:0.1542849 28:0.12998188 29:0.19880949 30:0.34998357 31:0.33799263 32:0.49580939 33:0.19842291 34:0.19910593 35:0.21690896 36:0.36641379 37:0.2343684 38:0.26077582 39:0.37846703 40:0.27091931 
5 1:0.46455237 2:0.92344242 3:0.50869628 4:0.32949396 5:0.42850381 6:1 7:0.40948374 8:0.68097501 9:0.34802237 10:0.15939185 11:0.43333903 12:0.55278649 13:0.41978014 14:0.36734286 15:0.53670433 16:0.59292465 17:0.32582485 18:0.48682062 19:0.48781242 20:0.33169533 21:0.24402872 22:0.080380621 23:0.32221035 24:0.92933537 25:0.78776564 26:1 27:0.34559899 28:1 29:0.33053807 30:0.33023021 31:0.60281567 32:0.76988301 33:0.92850003 34:0.36734512 35:0.65335835 36:0.26538781 37:0.37774133 38:0.40878878 39:0.2504047 40:0.34407172 
5 1:0.28558708 2:0.55529238 3:0.31860794 4:0.4702848 5:0.39573769 6:0.078989178 7:0.25253849 8:0.55453554 9:0.66817676 10:0.55591379 11:0.72369663 12:0.49292652 13:0.42183829 14:0.51162463 15:0.30654803 16:0.32242405 17:0.50935015 18:0.51165882 19:0.43150776 20:0.450101 21:0.25425982 22:0.60948889 23:0.26287575 24:0.35389485 25:0.38227744 26:0.01878355 27:0.27559624 28:0.12942319 29:0.48055005 30:0.38434772 31:0.44808225 32:0.41348635 33:0.29945901 34:0.3360475 35:0.36199233 36:0.19385264 37:0.20389628 38:0.2133117 39:0.14293278 40:0.19836612 
5 1:0.38150363 2:0.83795458 3:0.41897437 4:0.45994562 5:0.58063582 6:0.067530749 7:0.36865378 8:0.56013963 9:0.56406453 10:0.4097032 11:0.72063975 12:0.34237092 13:0.25810358 14:0.55082111 15:0.27576091 16:0.4595174 17:0.60122703 18:0.52102618 19:0.43106389 20:0.32955634 21:0.20797876 22:0.14466392 23:0.16845852 24:0.16056063 25:0.28466524 26:0.017039362 27:0.097619796 28:0.19147625 29:0.30627324 30:0.23407186 31:0.42817973 32:0.31016346 33:0.3473767 34:0.26518343 35:0.40097589 36:0.41325945 37:0.52661471 38:0.35062619 39:0.21049514 40:0.28542452 
5 1:0.22490777 2:0.76914405 3:0.26540802 4:0.44930224 5:0.39050153 6:0.082737868 7:0.20094989 8:0.56160598 9:0.76051302 10:0.53599464 11:0.56327423 12:0.39434917 13:0.35409232 14:0.61996957 15:0.36588346 16:0.49124599 17:0.34804798 18:0.38250604 19:0.34864905 20:0.35275541 21:0.33848127 22:0.41027361 23:0.32781454 24:0.39979043 25:0.39301337 26:0.024319559 27:0.28694485 28:0.20139945 29:0.47315472 30:0.32097654 31:0.2951376 32:0.46641403 33:0.37290028 34:0.44390832 35:0.40972343 36:0.18238907 37:0.20675677 38:0.22803111 39:0.30962176 40:0.33390443 
5 1:0.16893525 2:0.86019981 3:0.18103853 4:0.30371664 5:0.3353204 6:0.12946605 7:0.15099902 8:0.87817669 9:0.84115262 10:0.33321744 11:0.31630162 12:0.43181978 13:0.39343101 14:0.52053591 15:0.21560615 16:0.31897723 17:0.44060924 18:0.5671778 19:0.47026527 20:0.56873605 21:0.055002024 22:0.35301326 23:0.089577841 24:0.34087437 25:0.12308012 26:0.029716156 27:0.040765097 28:0.10289844 29:0.14165874 30:0.22478491 31:0.34463636 32:0.33244473 33:0.45267847 34:0.29519543 35:0.43130251 36:0.60311653 37:0.61937899 38:0.53494457 39:0.48882588 40:0.60832461 
5 1:0.25073146 2:0.8963834 3:0.28332772 4:0.31898822 5:0.36081318 6:0.15376455 7:0.21274157 8:0.83451793 9:0.64593271 10:0.2447267 11:0.3347239 12:0.27503709 13:0.29830325 14:0.29153965 15:0.63453367 16:1 17:0.47650034 18:0.25508477 19:0.3543682 20:0.46762879 21:0.13622758 22:0.11726801 23:0.081826732 24:0.23286909 25:0.15882306 26:0.050236686 27:0.048130092 28:0.086595046 29:0.15569148 30:0.28932613 31:0.33840165 32:0.45312826 33:0.45591194 34:0.41935347 35:0.26275508 36:0.27444349 37:0.27897129 38:0.27415449 39:0.24175775 40:0.35538377 
5 1:0.11207226 2:0.83591038 3:0.16941661 4:0.37880549 5:0.17762939 6:0.14870277 7:0.10334098 8:0.84992568 9:0.81910697 10:0.54057649 11:0.44444996 12:0.37136836 13:0.34924379 14:0.32239196 15:0.2892414 16:0.37895312 17:0.23308714 18:0.43379209 19:0.59844911 20:0.7308119 21:0.058070225 22:0.17139131 23:0.12249641 24:0.36040945 25:0.31423868 26:0.033529362 27:0.10292042 28:0.21397966 29:0.20920597 30:0.28103149 31:0.27520444 32:0.41381838 33:0.4948706 34:0.30510768 35:0.23276621 36:0.41330857 37:0.18821161 38:0.21295361 39:0.2331658 40:0.19463079 
5 1:0.29958021 2:0.90145276 3:0.35135132 4:0.46635535 5:0.55697757 6:0.087625189 7:0.33639044 8:0.9100589 9:0.65189465 10:0.40042731 11:0.45421245 12:0.24377225 13:0.41802691 14:0.32884442 15:0.47590568 16:0.79859577 17:0.52416308 18:0.39826878 19:0.30560226 20:0.52253377 21:0.16719114 22:0.1186975 23:0.074599949 24:0.28822796 25:0.2360697 26:0.024349818 27:0.23608142 28:0.096146402 29:0.13659463 30:0.26456142 31:0.34750584 32:0.23194234 33:0.37664306 34:0.31197558 35:0.24328309 36:0.25001733 37:0.33258915 38:0.20890654 39:0.16895018 40:0.33325002 
5 1:0.27070347 2:0.94694922 3:0.28983355 4:0.36232845 5:0.49956566 6:0.11242583 7:0.25466754 8:0.92707043 9:0.68655464 10:0.25982129 11:0.39736186 12:0.3281516 13:0.48195182 14:0.39609714 15:0.21842851 16:0.49120829 17:0.43468937 18:0.5327797 19:0.42753749 20:0.6142548 21:0.18842048 22:0.043100734 23:0.1284623 24:0.11803815 25:0.25609377 26:0.032042569 27:0.23159378 28:0.092602357 29:0.22165335 30:0.18241036 31:0.37176696 32:0.40306799 33:0.28631497 34:0.30228615 35:0.31521965 36:0.87537429 37:0.38506408 38:0.2884517 39:0.43784963 40:0.46311082 
5 1:0.32438621 2:0.92094691 3:0.39473832 4:0.50584899 5:0.54732128 6:0.080815286 7:0.32443498 8:0.91261014 9:0.58413091 10:0.39292006 11:0.40430369 12:0.25126247 13:0.41523099 14:0.27331007 15:0.49756339 16:0.89441152 17:0.53599482 18:0.42696058 19:0.28758514 20:0.58355708 21:0.18327331 22:0.11857815 23:0.096464397 24:0.17334155 25:0.33669973 26:0.024393562 27:0.25093749 28:0.067541775 29:0.17756547 30:0.25237192 31:0.30462805 32:0.47539997 33:0.31466614 34:0.25078744 35:0.33106647 36:0.20517264 37:0.21185351 38:0.23744003 39:0.23799891 40:0.25816521 
5 1:0.18827121 2:0.84783895 3:0.294421 4:0.52414444 5:0.28140961 6:0.11841348 7:0.16622994 8:0.8888638 9:0.68421881 10:0.51719569 11:0.47959086 12:0.31573011 13:0.32259951 14:0.26311581 15:0.34199249 16:0.59994223 17:0.38855052 18:0.37549163 19:0.51255564 20:0.67270623 21:0.22579517 22:0.13835073 23:0.15452882 24:0.25023188 25:0.45045902 26:0.033234603 27:0.23606636 28:0.095659324 29:0.24789623 30:0.44228862 31:0.17408687 32:0.24592221 33:0.34982166 34:0.32942516 35:0.41844612 36:0.65148366 37:0.26944647 38:0.28232844 39:0.14756367 40:0.18469603 
5 1:0.21473095 2:0.92030889 3:0.37382935 4:0.63960373 5:0.42687521 6:0.057055288 7:0.22355061 8:0.91768847 9:0.64810574 10:0.54138668 11:0.26817179 12:0.24477104 13:0.3784939 14:0.29523831 15:0.44807573 16:0.74968839 17:0.62084924 18:0.42992152 19:0.34041915 20:0.42509788 21:0.092276427 22:0.086995685 23:0.09370415 24:0.10982335 25:0.17955349 26:0.01721259 27:0.20084908 28:0.074482615 29:0.12936131 30:0.18627391 31:0.24086025 32:0.17208469 33:0.23457116 34:0.34144162 35:0.17861553 36:0.19743767 37:0.24770474 38:0.26820085 39:0.18303341 40:0.26554696 
5 1:0.22567103 2:0.8684217 3:0.29990033 4:0.4636445 5:0.38527323 6:0.10917873 7:0.18408123 8:0.90867625 9:0.68356147 10:0.48146534 11:0.28658654 12:0.24533337 13:0.5977335 14:0.24222397 15:0.26035286 16:0.62863009 17:0.65483102 18:0.63251733 19:0.37424438 20:0.34720073 21:0.10914732 22:0.099781886 23:0.09538193 24:0.14367862 25:0.13797563 26:0.023426904 27:0.13002517 28:0.10690629 29:0.20450955 30:0.18463294 31:0.28889895 32:0.36429197 33:0.32617024 34:0.45069227 35:0.24969753 36:0.40655546 37:0.35915701 38:0.500648 39:0.29224378 40:0.31458709 
5 1:0.26666 2:0.9416262 3:0.33555138 4:0.50697315 5:0.52738111 6:0.053001825 7:0.26451734 8:0.93094881 9:0.66241347 10:0.40214769 11:0.44430321 12:0.39712009 13:0.50263051 14:0.35216588 15:0.22743895 16:0.49793456 17:0.43327457 18:0.36485814 19:0.26740411 20:0.4764175 21:0.055282038 22:0.024576132 23:0.035861612 24:0.09947459 25:0.085962626 26:0.0073913435 27:0.14690489 28:0.088959412 29:0.071596076 30:0.1646475 31:0.14921653 32:0.39834191 33:0.25032309 34:0.26435649 35:0.22104203 36:0.21128102 37:0.27444861 38:0.25612616 39:0.28487457 40:0.66800046 
5 1:0.26803206 2:0.71559861 3:0.28021262 4:0.36191293 5:0.55861231 6:0.040777216 7:0.26482149 8:0.58741152 9:0.72174308 10:0.32164094 11:0.47276602 12:0.33270137 13:0.39719701 14:0.51214416 15:0.47425933 16:0.45690236 17:0.31886192 18:0.4155885 19:0.41310592 20:0.40700291 21:0.051559649 22:0.40758094 23:0.067161607 24:0.1416594 25:0.094581658 26:0.0082970915 27:0.050309692 28:0.19262271 29:0.14679529 30:0.15819831 31:0.18537324 32:0.2734704 33:0.44701665 34:0.24169592 35:0.22837741 36:0.17652147 37:0.12662622 38:0.19698285 39:0.20570314 40:0.1971503 
5 1:0.17109782 2:0.73679111 3:0.18066489 4:0.2691996 5:0.3723978 6:0.096240721 7:0.15165411 8:0.60148626 9:0.86145506 10:0.38901935 11:0.36701874 12:0.30902703 13:0.38111232 14:0.44297448 15:0.43598446 16:0.52147846 17:0.45776102 18:0.46597925 19:0.35124097 20:0.39890871 21:0.10667154 22:0.27911933 23:0.21473314 24:0.55396846 25:0.17688459 26:0.014153179 27:0.16485954 28:0.29075391 29:0.28493413 30:0.21306122 31:0.21617888 32:0.26474681 33:0.27254579 34:0.21087192 35:0.18375954 36:0.18350602 37:0.20115597 38:0.2080639 39:0.16705576 40:0.31795422 
5 1:0.17987533 2:0.70971703 3:0.19566271 4:0.25214198 5:0.38790429 6:0.07815863 7:0.18342614 8:0.6076319 9:0.8215931 10:0.33237465 11:0.42702349 12:0.37527499 13:0.43434187 14:0.44231242 15:0.3608928 16:0.47112553 17:0.44553243 18:0.47273083 19:0.44646145 20:0.48599834 21:0.10400047 22:0.34817503 23:0.11773151 24:0.28058091 25:0.29721592 26:0.015191282 27:0.13333609 28:0.38623337 29:0.24936876 30:0.30303127 31:0.24502691 32:0.34957747 33:0.29295942 34:0.36124691 35:0.2018348 36:0.24251881 37:0.15903792 38:0.3215792 39:0.1959054 40:0.1771191 
5 1:0.16549309 2:0.80215159 3:0.18674767 4:0.26649813 5:0.41253294 6:0.088652104 7:0.15954413 8:0.55601121 9:0.82803777 10:0.37862872 11:0.46969102 12:0.36559494 13:0.30355335 14:0.41578137 15:0.44902473 16:0.59963329 17:0.53969003 18:0.47687943 19:0.43953756 20:0.44465308 21:0.088916139 22:0.13512664 23:0.098534979 24:0.17907089 25:0.21300828 26:0.018686649 27:0.13210868 28:0.20060696 29:0.19511811 30:0.23697143 31:0.20315387 32:0.19139534 33:0.30336521 34:0.17322862 35:0.1301734 36:0.25423559 37:0.12421035 38:0.15447621 39:0.14892196 40:0.14246558 
5 1:0.326676 2:0.70724408 3:0.41074736 4:0.50985525 5:0.55898471 6:0.042139 7:0.38273829 8:0.72146305 9:0.58346454 10:0.46471855 11:0.55436197 12:0.36863774 13:0.52971386 14:0.45570849 15:0.4259098 16:0.40127042 17:0.40348758 18:0.43977282 19:0.45557412 20:0.50521153 21:0.26775343 22:0.53361413 23:0.29469822 24:0.35001021 25:0.41938674 26:0.0077263517 27:0.34010303 28:0.23251175 29:0.52959529 30:0.62384135 31:0.51586743 32:0.3331714 33:0.37613175 34:0.29179347 35:0.2427077 36:0.2044782 37:0.19617816 38:0.16004203 39:0.22282638 40:0.26233452 
5 1:0.13026333 2:0.84176101 3:0.10066874 4:0.18576774 5:0.30975312 6:0.085478718 7:0.14035375 8:0.45075444 9:0.94576856 10:0.50944243 11:0.62443077 12:0.49803903 13:0.38885851 14:0.83724417 15:0.59795029 16:0.42701379 17:0.30314087 18:0.33053546 19:0.26650017 20:0.53006214 21:0.0901817 22:0.17707127 23:0.10388598 24:0.31037294 25:0.24728627 26:0.032719009 27:0.13866313 28:0.12207683 29:0.19665182 30:0.18986544 31:0.29654092 32:0.27966182 33:0.40816583 34:0.25901214 35:0.18243331 36:0.26184026 37:0.15998391 38:0.2035875 39:0.24285064 40:0.27212082 
